tree
version=v4
num_class=1
num_tree_per_iteration=1
label_index=0
max_feature_idx=6
objective=lambdarank
feature_names=pen_diff dist_diff ppr_diff bucket_pen bucket_dist bucket_ppr pos_in_bucket_pen
feature_infos=[-0.39877929063674239:0.70316890603722904] [-2.7134518923848612:1.7513686131386863] [-0.0096220993311461004:0.00026222986996219999] [0:3] [0:3] [2:4] [8.2439775917651854e-05:0.99999996853868078]
tree_sizes=6840 6871 6832 6892 6857 6854 6842 6898 6908 6888 6868

Tree=0
num_leaves=63
num_cat=0
split_feature=1 2 2 2 6 6 2 6 6 1 2 2 2 6 1 6 1 1 1 2 1 1 2 2 2 2 2 1 2 2 1 2 6 1 6 1 6 6 6 1 6 1 6 1 2 6 6 2 6 6 6 2 2 3 1 2 6 6 1 2 2 1
split_gain=565.428 83.0334 52.4951 41.3679 52.0671 65.8488 39.3768 36.2936 18.5035 17.6131 23.2296 16.1064 16.8736 13.2059 12.5207 12.9748 12.1266 12.0126 22.5991 10.2598 10.1249 9.92837 9.6352 8.90941 8.58288 9.13314 8.31874 7.73165 7.07149 6.995 7.63868 6.69921 8.15278 6.61967 6.58704 6.33147 5.89025 5.47816 50.0989 5.37066 9.8425 5.19865 5.09433 4.28417 12.0358 5.33188 4.99976 4.52978 4.07975 5.90135 4.07543 10.5812 4.0405 4.03439 6.44651 8.01141 7.20145 4.51222 3.86318 11.2379 7.17892 3.76835
threshold=-0.26393704379562044 8.6096457794753586e-05 -0.0006851390270102498 -0.00031108014221794996 0.84274900859198143 0.39088230093984477 -0.00241851819515345 0.38130451863323311 0.89706487766877274 0.24098996350364985 -4.6458395249130112e-05 2.2279180282693476e-05 3.2950342960633981e-05 0.88711171706717551 0.13268704379562066 0.85562429884212021 0.11281934306569341 0.26603558394160626 0.32132755474452562 4.5715638452911956e-05 -0.060675182481751695 -0.11624087591240868 0.00011403298678415001 -9.0793760025570222e-06 3.2928507953970959e-05 3.1891946693367297e-05 0.00011396428645365001 -0.011185858870793099 7.6025346319298466e-05 -0.00013694093408904998 0.18282390510948887 0.00016087984584600004 0.62916054596219484 -0.032071167883211495 0.45032203474392191 0.1342381386861313 0.81667194840109436 0.46290962012290415 0.46136703918789351 0.065100364963503507 0.33782443377279714 0.032185218978102205 0.76644564365749057 0.059534671532846604 9.528414186727386e-05 0.56814212657878616 0.27821974500899488 9.8168114972425432e-05 0.16966850160972494 0.14714830286670028 0.98255307610547782 -4.1897143337582487e-05 0.00011501303948950001 1.5000000000000002 0.15859945255474422 0.00012957073110080001 0.53932599256355085 0.36640500979919982 0.16327554744525563 -0.00015073433566324996 -6.705071516870799e-05 0.30586222627737231
decision_type=10 2 2 2 2 2 2 2 2 10 2 2 2 2 10 2 8 8 10 2 8 8 2 2 2 2 2 10 2 2 10 2 2 10 2 10 2 2 2 8 2 10 2 10 2 2 2 2 2 2 2 2 2 2 10 2 2 2 10 2 2 10
left_child=37 2 6 -4 5 7 61 9 14 21 -11 23 24 22 15 -6 -10 41 -19 -14 -21 -5 26 33 25 34 36 -24 -22 -23 35 53 -33 -7 -13 39 42 38 -1 40 48 -8 43 44 45 -3 -46 -45 49 -31 51 -18 -15 54 55 57 -57 -29 59 -35 -60 -2
right_child=1 13 3 4 8 11 17 -9 16 10 -12 12 19 52 -16 -17 50 18 -20 20 28 29 27 -25 -26 -27 -28 31 -30 30 -32 32 -34 58 -36 -37 -38 -39 -40 -41 -42 -43 -44 47 46 -47 -48 -49 -50 -51 -52 -53 -54 -55 -56 56 -58 -59 60 -61 -62 -63
leaf_value=0.095210108956250858 -0.10000000000000001 -0.023643841237913951 -0.10000000000000001 0.070108497440450057 0.053351504810834428 -0.10000000000000001 -0.02207692824880764 -0.10000000000000001 -0.080154789247879554 0.040933783158203244 -0.10000000000000001 0.073616063199462414 0.041491254623568515 -0.017316840589428697 -0.097614256851239534 -0.099999999999999978 0.03287921629379207 -0.099999999999999908 0.076568529066055824 0.046768780067722393 -0.021102872166168251 -0.099999999999999714 0.058145384032689644 0.04833232919592681 -0.099999999999999978 0.097683901965524317 -0.10000000000000001 0.024081491088676799 -0.10000000000000001 -0.072639421408941293 0.04908577659801068 -0.10000000000000001 0.028133276176637179 -0.099999999999999867 -0.099999999999999978 -0.10000000000000001 0.055509564731578837 0.095901921568936663 -0.10000000000000001 0.023452204709264537 0.037889428186224386 0.070303393294427557 -0.10000000000000001 -0.024762757312579643 -0.0029387933077806047 0.092765871205303746 -0.099999999999999978 0.044114263066902193 -0.099999999999999978 0.063571995900800232 0.065240497573166481 -0.10000000000000005 -0.099999999999999978 0.086006420394310334 0.065328479730828726 -0.062445512761925594 0.053861667801367911 -0.099999999999999978 0.052271466739709394 0.011233255016408698 -0.044329893205767315 -0.010385184834384305
leaf_weight=27.542969183996323 6.3528068927116683 1.6886008528526995 33.999723740154877 3.55435920227319 2.9434434778522691 1.4349801617208857 1.6546456897631312 32.980274667963386 6.6442825023550522 3.6801851149648455 14.226466445950789 0.70927867293357616 9.8124295198358613 3.1541158226318649 51.615854359697551 2.5956480505410582 4.5282069558743387 3.6280646789819029 3.6207079463638365 4.4720942745916545 13.457317366730427 2.4159269907977494 20.987912995973602 18.674149538623169 8.1245227097533643 1.3044569995254276 1.9732133289799083 1.0391160976141782 3.5997714884579173 2.3562198141589712 4.3641206908505401 2.4501116801984599 2.5164923700504005 2.6293697587680098 2.3779423083178699 2.4076556174550197 4.976079123094677 99.64272876130417 3.7320757568813852 6.2692694582510873 3.272714723367244 19.126915926113725 1.3176724286749948 3.4662655361462367 1.9925840487703679 2.3561996256466955 3.9707001259084791 7.6671830425038934 4.0645764255896211 1.2002343242056666 2.3585461305920035 2.2389185004867596 2.7796975115779787 2.7588449586182824 5.4427456359844646 1.7166400647256521 5.922929810360074 2.4845354645512998 9.3536242954432947 16.645009572617713 2.4210353826638302 1.4387696338817475
leaf_count=99 94 38 570 28 18 41 16 379 136 34 233 4 99 44 1159 51 45 78 21 47 201 53 166 171 367 7 367 11 69 48 41 52 28 54 57 112 33 331 367 66 37 119 18 47 29 19 84 136 76 14 20 58 60 15 35 34 56 54 66 198 44 20
internal_value=-1.17655e-09 -0.0295707 -0.0410452 -0.04827 -0.0411989 -0.0264655 0.015978 -0.0596502 -0.0767183 -0.0318172 -0.0710352 0.00175152 -0.0204818 0.0157452 -0.089948 -0.0185098 -0.0287703 0.0436164 -0.0118053 -0.000883196 -0.0201963 -0.00833412 0.0214462 0.0208121 -0.0695585 -0.0132422 -0.00084148 0.035909 -0.0377535 -0.018915 -0.0107304 0.0167283 -0.0350771 0.00499156 -0.0601123 -0.024069 0.00629025 0.0901718 0.0719155 -0.0134173 -0.0346354 0.062948 -0.00461483 0.00133017 -0.0224095 0.0441678 -0.0675678 0.0226702 -0.0657799 -0.0266707 0.00864208 -0.0110842 -0.0560498 0.0300151 0.020713 -0.00103981 0.027727 -0.0634087 0.00984391 -0.00394095 0.0324089 -0.083452
internal_weight=530.134 399.216 318.555 282.733 248.733 175.808 35.8219 80.792 72.9249 47.8117 17.9067 95.016 43.8578 80.6616 57.1549 5.53909 15.77 28.0303 7.24877 31.3416 21.5292 29.9051 74.7278 51.1582 12.5162 4.39168 29.4085 45.3193 17.0571 26.3507 23.9348 24.3314 4.9666 32.484 3.08722 19.5707 27.4353 130.918 31.275 17.163 10.8937 20.7816 22.4592 21.1415 10.0081 4.0448 5.96328 11.1334 7.62103 3.55645 9.12567 6.76713 5.93381 19.3648 16.606 11.1632 7.63957 3.52365 31.049 19.2744 11.7747 7.79158
internal_count=7074 6277 4951 4603 4033 2546 348 1121 1487 742 267 1425 851 1326 1228 69 259 234 99 416 317 475 1222 574 435 68 771 451 270 447 394 285 80 403 61 353 404 797 466 241 175 135 371 353 170 57 113 183 138 62 123 103 104 205 190 155 90 65 362 252 110 114
is_linear=0
shrinkage=0.05


Tree=1
num_leaves=63
num_cat=0
split_feature=1 0 0 2 2 2 2 0 1 1 0 1 2 1 0 1 2 2 2 1 2 2 0 2 2 2 2 2 1 1 2 0 2 1 1 0 1 2 0 2 0 2 1 0 0 1 1 1 0 1 0 1 0 2 2 1 2 0 1 2 1 0
split_gain=1250.37 334.118 409.938 132.493 168.973 107.149 157.578 155.863 118.185 204.781 120.215 61.7727 101.887 85.8846 54.5029 51.1514 50.7057 46.7411 37.1056 34.633 32.6031 32.4187 31.2827 29.6159 28.6947 26.5236 32.6726 17.8349 22.8896 26.5274 24.7453 17.7866 16.9714 16.5867 15.1601 15.0679 14.5478 14.4403 24.284 20.097 17.0909 12.9542 12.103 11.5164 33.9709 10.65 10.617 22.567 21.065 10.1398 29.8451 23.0029 18.9783 14.2796 13.3727 10.2592 10.1114 10.0077 9.92189 9.71209 9.70234 9.66097
threshold=-0.23243613138686187 -0.030557304089460596 -0.033112380844172139 -0.00072905636983984989 0.00011403298678415001 -0.00031108014221794996 -4.0098649573833973e-05 0.054682683737045261 0.04379562043795631 -0.075524635036496382 0.044976225601446061 0.19101277372262773 8.0373688227324927e-05 0.15859945255474422 0.26048499876200998 0.21195255474452576 9.411725343770113e-05 8.7913834567913634e-05 -0.00081986833786589994 0.16327554744525563 -2.3219598438504445e-05 -0.0016088698530998997 -0.16799261234679447 -0.00015073433566324996 9.528414186727386e-05 1.3718396080920606e-05 3.1891946693367297e-05 2.2279180282693476e-05 0.11492708843000797 0.13268704379562066 7.6243432816245959e-05 -0.078059349853495094 -1.7877014779601793e-05 0.20536040145985404 1.0000000180025095e-35 -0.047590166302150246 -0.11243156934306549 -0.00013694093408904998 0.082760334048603362 -5.0024736197483035e-05 -0.042605064375021741 -0.0001249487887072 0.089712591240876008 -0.069402888622826134 -0.11367761214046983 0.30586222627737231 0.080839416058394273 0.17365419708029203 0.060757396938057207 0.094204571363429621 -0.020777595634066299 0.14833485401459859 0.024947018528445452 6.028995858757184e-05 9.9841911227225127e-05 0.16448448905109478 -8.5286911639478367e-05 0.091970439070696963 0.37427007299270065 -1.4473085546978742e-05 0.068635948905109365 -0.026523601081177746
decision_type=10 2 2 2 2 2 2 2 10 10 2 10 2 10 2 10 2 2 2 10 2 2 2 2 2 2 2 2 10 8 2 2 2 8 10 2 10 2 2 2 2 2 10 2 2 10 10 10 2 10 2 10 2 2 2 8 2 2 10 2 10 2
left_child=1 2 31 14 5 33 19 8 9 -8 17 12 20 -14 -2 -16 57 32 21 23 -9 -17 -6 -7 -19 60 -27 46 34 -30 -31 -1 -11 -5 -29 42 -24 -25 39 40 -39 -40 -28 44 -38 56 59 48 -48 52 -51 -52 53 -37 -55 -53 -21 -13 -23 -22 -10 -42
right_child=3 -3 -4 4 22 6 7 11 25 10 -12 16 13 -15 15 18 -18 24 -20 45 27 58 36 37 -26 26 35 28 29 30 -32 -33 -34 -35 -36 49 43 38 41 -41 61 -43 -44 -45 -46 -47 47 -49 -50 50 51 55 -54 54 -56 -57 -58 -59 -60 -61 -62 -63
leaf_value=0.032199987468847752 0.051019125377452124 0.083721115625874781 -0.092529790028787126 -0.09276206334353311 -0.095108124535777119 -0.092903849974832142 0.034265022692745284 -0.076795898107362592 0.077036164156844666 0.01818122695217872 0.07689023260684319 -0.032857911401158894 -0.086537509333938556 0.066490040721338864 -0.095124423251237114 0.036857581283397382 0.043945860959045811 0.048683857385547952 0.089337552986755442 0.025029568856650104 0.077252111329656828 -0.094524500608888368 0.045407454788642734 0.055511101286588885 -0.066329029482181293 -0.097488747061238362 -0.096739417506723047 -0.010385501429160105 0.061700596712508597 -0.095834920149374558 0.06362599802507099 0.085090235558408001 -0.080375150619004243 -0.011167755243243578 -0.09595910628486834 0.047163656818049828 0.042592987792520152 -0.096715343361622519 0.0040635070675803259 0.051894034742334644 0.050961211246299591 -0.09538307701195714 0.011626670093973135 0.015597180005133857 -0.074510741311228257 -0.018494168666440016 0.050862846681016927 0.051412749710218968 -0.095860375576377277 0.062578730179559991 -0.09725326490148134 0.050924648750016947 0.074173087685845115 -0.095444502044400067 0.012111521728503379 -0.033045024971129426 0.061243336246932747 -0.089133310229657967 -0.014917410629975923 0.019107709574985643 0.030816193411896092 -0.017387917189749063
leaf_weight=21.228872645646334 76.138793886639178 439.16625894606113 68.885425567626953 88.66572605445981 6.5112930983304969 9.9599411385133845 75.681845987215638 15.738715422339736 18.173505868762732 4.4722493793815365 14.864398773759602 8.2519854418933374 119.08991414494812 9.9336809758096916 14.362721635028718 15.820261411368842 7.7190103456377974 12.49014111980796 11.813903447240589 54.08573960699141 10.570050880312918 10.013401464559143 35.263880759477615 9.7879057899117452 9.5847444776445609 7.4985510390251866 5.437653932720421 8.8897644560784119 12.39092607796192 7.5702208075672406 3.58506721816957 63.274712979793549 187.50746749714017 6.6990435030311337 12.387867528945206 10.817829366773369 11.359765196219088 5.4086561845615462 4.7430950738489619 16.770622396841652 7.0492248237133017 10.577527944929896 4.8970451578497887 140.51303273066878 13.616339724510906 9.285112848505376 3.4488553777337101 9.1143109574913961 8.4150017313659173 12.313966196030373 8.8347899578511768 6.6285024136304838 18.093067454174161 4.9113434441387636 7.0216237753629684 8.0614231675863248 29.948530614376068 185.30807350948453 6.4258685111999503 22.405085301026702 30.25915771164 19.39404616877437
leaf_count=29 104 358 369 552 50 119 168 111 23 15 19 31 519 20 90 38 16 25 10 130 16 81 46 23 79 44 31 36 22 51 8 52 1024 35 89 23 22 35 13 35 14 80 17 341 47 27 6 15 68 20 60 14 27 34 17 36 59 1409 8 60 68 86
internal_value=-6.82807e-11 0.0615321 -0.00199704 -0.0242012 -0.028845 -0.036247 -0.0317183 -0.0402666 -0.0194341 -0.0370358 -0.0606083 -0.0612269 -0.0442878 -0.0747557 0.0231428 -0.0131784 -0.0817226 -0.0701564 0.0135263 0.0113765 -0.00995992 -0.0142368 0.0127511 -0.0119775 -0.00125385 0.0180724 0.0026549 0.00068943 -0.02262 0.0113453 -0.0445876 0.0718032 -0.0780792 -0.0870303 -0.0602066 0.0112846 0.0162495 -0.00104564 -0.00970289 0.00759339 -0.0157317 -0.0645955 -0.0453907 0.0100362 -0.021249 0.0323209 0.0200546 -0.00775353 -0.0532075 0.0189229 -0.00048706 -0.0334987 0.0359542 0.00555981 -0.0321561 0.00484442 0.0379356 -0.0867341 -0.0634073 0.0377457 0.0481594 0.000832536
internal_weight=2099.14 592.555 153.389 1506.58 1372.01 1164.74 1069.38 892.368 447.549 304.601 228.919 444.819 243.539 129.024 134.575 58.4362 201.279 214.055 44.0734 177.01 114.516 32.2595 207.264 83.691 22.0749 142.948 94.5158 98.7772 44.8238 23.5462 11.1553 84.5036 191.98 95.3648 21.2776 87.0172 200.753 73.7311 63.9432 48.6225 31.8519 15.3206 10.3347 165.489 24.9761 93.3194 53.9533 20.9782 11.8639 76.6825 35.8387 23.5247 40.8439 22.7508 11.933 14.6899 84.0343 193.56 16.4393 32.9751 48.4327 26.4433
internal_count=7074 808 450 6266 5935 5429 4842 4221 1744 1330 1162 2477 1021 539 331 227 1456 1143 137 621 482 127 506 405 104 414 323 371 206 81 59 81 1039 587 125 279 456 286 263 170 135 93 48 410 69 216 165 89 74 231 130 110 101 74 51 50 189 1440 89 76 91 100
is_linear=0
shrinkage=0.05


Tree=2
num_leaves=63
num_cat=0
split_feature=4 0 0 6 0 1 1 1 0 1 6 6 0 6 0 1 6 1 6 6 6 0 1 1 1 6 6 1 1 6 1 0 0 0 6 1 6 1 1 6 1 0 6 6 1 6 0 1 6 0 1 1 6 6 0 1 1 0 6 0 0 6
split_gain=913.881 221.254 315.798 140.819 108.927 98.8689 64.3292 120.479 82.6338 56.7312 47.0169 83.6988 37.9989 32.4035 32.0434 32.1542 24.4545 22.5496 30.3742 25.7398 26.1318 64.4363 22.7524 31.1408 19.45 18.0988 15.8042 14.9466 33.2791 17.9872 17.7677 19.6056 18.2314 19.6338 19.7095 14.8021 22.2656 17.7876 30.8335 14.3762 13.8704 24.2613 17.2977 20.1618 14.0969 13.1656 35.5711 24.402 25.0995 11.6936 11.6666 17.0049 11.615 10.8592 10.825 10.351 30.739 9.95953 13.9842 9.88242 53.2594 9.6726
threshold=1.5000000000000002 -0.030557304089460596 -0.033112380844172139 0.84274900859198143 0.10333754178187156 -0.18081660583941617 -0.11272810218978079 -0.062705291970802782 -0.071343444889200677 0.15050182481751781 0.53328950799111607 0.52214683843712273 -0.058335443403612443 0.93107941291852092 0.38180047971773329 0.30467609489051078 0.22466184418761212 0.25104927007299255 0.013361935657939701 0.11857620054639237 0.24000255403245832 0.25020374489331504 0.19404653284671558 0.18902828467153318 0.29578010948905115 0.072364984511897115 0.3749664411137934 0.14833485401459859 0.14073905109489049 0.12637566867398678 0.12383667883211676 -0.13059591363016657 -0.10123873746543614 -0.040980926835307789 0.5000286993688613 0.10120894160583972 0.94994184908930623 0.11631995757902522 0.15821167883211637 0.26987203956379185 -0.0073448905109491994 -0.061975523046956242 0.35660066243523669 0.43049451692555302 -0.015647810218978046 0.55109825849482996 -0.0010378162010490498 0.070308053411484814 0.61999295846513147 0.011565348904372103 0.063378760305684359 0.056981913670238006 0.25594211307449261 0.49089482510154625 -0.019713619857212494 0.17698448905109523 0.20802919708029169 0.0084774749310092008 0.56814212657878616 0.0096044618908184016 -0.044088523913663843 0.95849322019786254
decision_type=10 2 2 2 2 10 10 10 2 10 2 2 2 2 2 8 2 10 2 2 2 2 10 10 10 2 2 10 8 2 10 2 2 2 2 10 2 10 10 2 10 2 2 2 10 2 2 10 2 2 8 10 2 2 2 10 10 2 2 2 2 2
left_child=1 2 -1 5 9 12 16 8 39 13 11 17 26 -5 45 -16 -7 18 -9 -19 -21 -22 23 25 -23 -20 -2 28 29 -27 31 -31 -33 40 50 36 -6 -37 -39 -8 41 44 -42 -44 -34 -12 -47 48 49 57 51 -35 -29 -24 -36 -40 -57 58 -48 60 -10 -38
right_child=3 -3 -4 4 35 6 7 10 59 -11 14 -13 -14 -15 15 -17 -18 19 22 20 21 24 53 -25 -26 27 -28 52 -30 30 -32 32 33 34 54 37 61 38 55 -41 42 -43 43 -45 -46 46 47 -49 -50 -51 -52 -53 -54 -55 -56 56 -58 -59 -60 -61 -62 -63
leaf_value=0.07790983829913567 -0.053026151591208263 0.077158940199517939 -0.086486349438112287 0.011550817425227945 -0.09092232484851738 -0.042534220024044278 -0.010531411828310062 -0.088525877949288595 -0.08749779732492774 -0.084048657577550853 0.047686156194898299 -0.087872471049471546 -0.08674305967476427 -0.089967622351339649 -0.093821860754012262 0.042590698125871691 0.048788322302014159 0.039262622974657463 0.04162126145986933 -0.087852980569121608 0.064030236808909069 -0.087813272008253368 0.020565917590414234 -0.086935734423379152 -0.0020666788449142069 -0.093308908156595732 0.039015834725669024 -0.028852329614683064 -0.088007915398565659 0.066528095855924105 0.048671627006564723 -0.092372103949492732 -0.091342808735789094 -0.054591987873863823 0.074112358811287263 0.070915414362043946 0.054648508669055997 -0.091085965012045411 0.053543922505373612 0.066421917276921191 0.020800579487410899 0.068435203751966919 -0.091267136615029332 0.056345261303429067 0.045448270610553371 -0.095131943078641756 0.022439768089704618 -0.00063470401323417638 0.036152069566786273 -0.092372538174913338 -0.094218319851922819 0.05502305162455913 0.046735648422872977 0.079454089012838541 -0.023096394435984192 -0.094287703243262716 0.025698877655622166 0.045320090244744746 -0.093530176659687353 -0.087583580107281192 0.013416359866508293 -0.039848979511955512
leaf_weight=60.361026495695114 8.9313458949327487 373.18731791526079 56.608613263815641 27.89960022829473 10.58819399867207 8.3300464376807195 11.667994765564801 9.7179426327347738 45.452074877917767 169.36057376302779 24.396768014878035 36.985482916235924 59.160979656502604 10.943541564047335 14.170028619468212 6.2143556959927091 61.102686937898397 10.914338244125245 22.217301174998283 22.321559087373316 14.815474461764095 22.238501633517448 36.362776096910238 11.108144310303031 9.4126059394329769 5.5438100621104232 9.7607345730066282 6.7711851149797466 13.278387725353239 8.1695637404918653 15.628404620103536 6.9114421242847888 4.6879648938775089 16.720729045569932 5.4345453307032585 9.7395939342677575 5.8493095710873586 8.288207568228243 12.05562669597566 12.648221506737171 16.972994461655617 18.677601257339109 9.7434250954538566 3.0334387049078932 3.1482521556317806 7.9097520820796481 5.4005135856568867 169.32533401995897 122.26820119842887 4.6667412780225268 11.343353031203145 4.4877437576651564 20.374987150542438 9.9763305336236936 6.0545083060860616 6.8741381019353893 23.883838482201099 6.5478408858180037 5.011891677044332 53.654978389851749 18.354553805664182 5.0423307530581951
leaf_count=61 27 358 369 107 95 22 49 81 379 1137 54 402 376 80 79 15 99 24 64 166 23 158 103 82 35 39 19 28 86 15 38 53 42 105 8 22 18 68 29 24 62 37 77 9 9 42 16 582 331 34 73 10 51 12 39 44 61 17 37 402 47 43
internal_value=3.62321e-10 0.0583519 -0.00165132 -0.0215284 -0.0522981 -0.0129165 -0.0085225 -0.0121358 -0.0544003 -0.0715493 -0.0041352 -0.0163793 -0.0671082 -0.0170507 0.00868244 -0.0522353 0.0378321 -0.00873851 -0.00175689 -0.032071 -0.0433892 -0.0220298 0.00152862 -0.00545952 -0.0623134 -0.000916086 -0.00496316 -0.00625597 -0.0124407 -0.00509284 -0.00136001 -0.00813654 -0.0138258 -0.00841358 -0.0334169 -0.00360884 -0.0392917 0.00898886 -0.00281385 0.0294963 0.011158 0.037455 -0.0122786 -0.0562215 -0.0363861 0.0122763 0.00958614 0.0122306 0.0273695 -0.0222827 -0.0532886 -0.0313973 0.0278814 0.0332439 0.0228852 0.0142746 -0.00111707 -0.0029969 -0.033381 -0.0717681 -0.0584689 0.0109005
internal_weight=1818.71 490.157 116.97 1328.55 290.525 1038.03 960.175 890.742 141.778 208.204 748.964 383.053 77.8531 38.8431 365.911 20.3844 69.4327 346.067 266.365 79.7025 68.7881 46.4666 256.647 210.308 31.6511 199.2 18.6921 176.982 149.836 136.558 131.014 115.386 107.216 100.305 44.0409 82.3212 21.4798 60.8414 51.1018 24.3162 56.2637 26.5138 29.7499 12.7769 7.83622 345.527 321.13 313.221 143.895 21.627 32.5518 21.2085 27.1462 46.3391 11.4891 42.8136 30.758 16.9602 10.4124 117.462 63.8066 10.8916
internal_count=7074 788 430 6286 1704 4582 4160 4039 901 1324 3138 1931 422 187 1207 94 121 1529 1123 406 382 216 1042 927 193 845 46 781 702 616 577 539 524 471 235 380 156 224 202 73 236 88 148 86 51 1113 1059 1017 435 104 188 115 79 115 47 134 105 70 53 828 426 61
is_linear=0
shrinkage=0.05


Tree=3
num_leaves=63
num_cat=0
split_feature=4 0 0 6 0 2 2 6 6 0 2 2 2 2 2 0 6 2 6 0 2 0 2 2 2 6 0 2 0 6 2 2 2 2 0 2 2 2 2 6 0 6 6 2 2 2 2 0 0 6 0 2 2 2 2 6 6 2 2 2 0 2
split_gain=716.464 178.265 248.425 103.106 80.9838 79.9189 84.9228 96.4577 76.74 45.3068 31.5034 30.5026 46.4347 39.8651 64.2963 37.8945 50.0224 26.3645 23.3843 20.6216 19.2494 18.4908 16.7652 15.9566 19.855 29.4398 38.686 33.3406 14.6362 21.4929 13.4569 16.5198 18.6847 13.8595 12.1969 12.1767 11.9919 14.2573 11.7839 11.2988 14.8085 11.0227 10.6181 9.72934 10.9055 9.40315 9.36401 8.96456 18.8899 8.15535 25.8966 8.10832 10.9442 7.93487 7.48069 7.28637 6.80601 57.0614 6.63011 18.0053 6.53579 6.02094
threshold=1.5000000000000002 -0.030557304089460596 -0.033112380844172139 0.84274900859198143 0.10333754178187156 0.00011403298678415001 0.00011396428645365001 0.53328950799111607 0.49469075337942225 0.30971316283579237 -0.00013694093408904998 -4.6458395249130112e-05 -0.0017208345889762999 -0.0006851390270102498 -0.00020379884234374997 -0.059676605249040691 0.39088230093984477 9.8168114972425432e-05 0.2107977123220007 0.18970360252548168 -0.0016088698530998997 -0.2029689349234646 5.9105733596714629e-05 0.00010973063642885002 4.9903605108273296e-05 0.81667194840109436 0.040019899517189657 7.2522604937518679e-05 -0.044088523913663843 0.49089482510154625 -7.139539920687125e-06 -0.00072905636983984989 -0.0001249487887072 -4.0005300376284813e-05 0.078089302810218961 -9.7874414195388116e-05 -0.00021153651871474996 -0.00028035782253854998 -1.4473085546978742e-05 0.72873346925637972 0.043437368464626709 0.98255307610547782 0.66083619804139093 0.00010628173195840001 1.7468570008357226e-05 7.5474517481435282e-05 0.00018212417191960004 0.0018019611686481503 0.030485942722743055 0.81225546348158895 0.056360616720992206 8.1085451535725192e-05 -5.582623427024808e-06 1.1066841778291502e-05 -1.7877014779601793e-05 0.71167412056319235 0.85562429884212021 4.1184939150441765e-05 2.2279180282693476e-05 -4.3554711960843689e-06 0.16802903994552307 9.0390587259536864e-05
decision_type=10 2 2 2 2 2 2 2 2 2 2 2 2 2 2 2 2 2 2 2 2 2 2 2 2 2 2 2 2 2 2 2 2 2 2 2 2 2 2 2 2 2 2 2 2 2 2 2 2 2 2 2 2 2 2 2 2 2 2 2 2 2
left_child=1 2 -1 5 10 6 7 8 11 22 -5 12 -2 -14 -15 18 17 58 53 35 -6 -12 -10 24 30 26 27 -26 -18 51 31 55 36 49 -32 60 37 -33 54 40 42 43 46 44 -22 -29 -7 -47 -49 50 -34 52 -30 -13 -35 -9 57 -23 59 -17 -16 -3
right_child=3 61 -4 4 20 39 -8 23 9 -11 21 15 13 14 19 16 28 -19 -20 -21 41 56 -24 -25 25 -27 -28 45 29 -31 34 32 33 38 -36 -37 -38 -39 -40 -41 -42 -43 -44 -45 -46 47 -48 48 -50 -51 -52 -53 -54 -55 -56 -57 -58 -59 -60 -61 -62 -63
leaf_value=0.072300455022107843 -0.08475873952728101 0.065778229291239276 -0.08178617075039761 0.031712296175219742 0.065948534686843349 0.024867591235357221 -0.081933092326920531 0.0056357822115470487 -0.075297974696532405 0.053840639522028111 -0.0088789907785326427 0.0089500135012309991 0.058668254344002441 -0.084595398823574169 -0.090499002341250592 -0.076137354627864265 0.034862752938634653 0.03660054804975018 0.02073763453188307 0.045208426985279972 -0.021283672983695299 0.057168229455530101 0.00027344771512293744 0.067156174899182075 -0.090924434894907674 0.054067030144513917 -0.08032005051377937 0.067013119890068237 0.0089027499901020452 0.074253932139267287 0.032448957296956564 -0.086735552858764053 0.03295899623590428 -0.037003648703372645 -0.035953570145670889 0.015720174545430714 -0.093091023972613762 0.020066245493161997 -0.094689434219187449 -0.022371170821209718 0.057357503066941186 0.028076259131770559 -0.038968325820287461 0.025961016656587416 -0.085661969179080713 0.027889539669857796 -0.032614147823218746 -0.089436311269748978 0.031513315732750076 0.065878315214593294 -0.068295313195951987 -0.0055570523877761738 -0.091697653487826214 -0.073464470499997256 0.037051151241885037 0.055467326235079308 -0.082459490683852901 -0.08254016969748651 -0.083113991985414248 0.013010080916462994 -0.010882189912843766 0.079172960972411041
leaf_weight=54.023699730634689 13.476915163919328 169.41028625145555 50.713255748152733 7.8583804182708255 8.6078107692301256 99.721106194891036 49.763912796974182 12.943084418773653 109.58029960468411 7.8489916734397402 11.319103259593247 4.0009694807231417 33.987074010074139 19.592165504582226 5.9038966875523311 22.569035353139046 17.59207034856081 5.9303467422723761 47.490060735493898 34.041452940553427 37.275442954152822 8.6511451322585327 7.865760412067174 10.71212827041745 8.6464042589068395 12.885777704417704 23.656860463321209 7.7215755507349959 3.6146575808525112 4.6910283491015425 86.920935085043311 4.8999312855303279 27.854840021580458 8.3842197079211473 7.045170282945036 13.829077968373896 9.0069631338119489 8.6253794264048356 5.2368678590282789 14.108178047463296 27.699959374964237 12.852719780057667 7.988277116790413 8.3952577672898752 7.9878411721438161 18.329924035817388 7.6269183587282887 6.2012693379074317 6.733453556895256 7.9770690314471713 8.165996219031511 8.8875816762447339 10.724963523447515 10.816038541495798 5.748139664530755 16.932495500892401 105.46884857490659 47.097422020509839 53.249795563519001 7.5617092717438927 4.5752620622515678 166.20072884857655
leaf_count=61 99 185 369 27 16 278 367 35 859 19 45 17 55 163 42 186 52 10 165 81 202 22 32 20 62 27 192 15 14 8 240 48 71 38 33 51 63 30 27 39 47 44 33 33 85 53 39 54 20 13 44 39 72 76 11 28 848 382 570 31 14 173
internal_value=4.7896e-10 0.0546395 -0.00230773 -0.0198048 -0.0480294 -0.0122875 -0.0186746 -0.014491 -0.0292558 -0.062464 -0.066194 -0.0163554 0.00292282 0.0134802 -0.00622434 -0.0286194 -0.0435224 -0.0652632 0.00362793 0.0200904 -0.00440813 -0.0706533 -0.0702367 0.00721441 0.00502976 -0.0154839 -0.0280554 -0.00209803 -0.000857543 -0.0233659 0.0132625 0.00185268 -0.00928586 0.00461969 0.0273204 -0.015085 -0.0483922 -0.0186258 -0.0306232 0.0203187 0.0245294 -0.0135136 0.0166451 -0.0234755 -0.0326448 0.017602 0.0207836 0.00539868 -0.0264733 0.0201347 0.0100044 -0.0430815 -0.0663388 -0.0512105 -0.00688289 0.0338787 -0.0749904 -0.06086 -0.0725082 -0.0537646 -0.0557378 0.0724115
internal_weight=1655.23 440.348 104.737 1214.88 255.514 959.366 802.222 752.458 447.829 125.295 180.395 322.534 125.406 111.929 77.9419 197.128 134.821 89.3109 62.3071 58.3497 75.1191 172.537 117.446 304.628 293.916 84.1753 71.2895 47.6326 45.5103 27.9182 209.741 115.775 85.8994 63.3671 93.9661 24.3082 22.5323 13.5253 19.3692 157.144 143.036 66.5113 115.336 53.6585 45.2633 38.9862 107.348 31.2646 12.9347 43.9979 36.0208 23.2272 14.3396 14.817 14.1324 29.8756 161.217 55.7486 83.3805 30.1307 10.4792 335.611
internal_count=7074 788 430 6286 1704 4582 4146 3779 2655 910 1324 1745 505 406 351 1240 982 797 258 188 380 1297 891 1124 1104 423 396 204 185 133 681 408 345 204 273 107 141 78 76 436 397 364 350 320 287 142 317 127 74 128 115 125 86 93 49 63 1252 404 787 217 56 358
is_linear=0
shrinkage=0.05


Tree=4
num_leaves=63
num_cat=0
split_feature=1 0 0 6 1 0 2 2 6 6 1 6 6 2 2 2 2 2 2 6 2 1 6 2 1 0 1 2 1 2 1 1 2 2 6 6 2 1 1 2 1 6 1 0 0 2 1 1 1 0 6 1 0 1 0 0 1 1 0 2 6 6
split_gain=599.048 149.604 210.833 79.9679 84.0714 72.784 43.7665 82.8731 54.407 43.2899 38.7246 24.5475 48.7134 22.6443 22.2012 25.4392 19.7499 56.6213 22.2598 22.7223 33.9787 28.5596 18.8987 16.6999 32.5413 14.8733 13.4551 12.932 12.0359 10.9449 12.6091 15.8557 10.8171 17.4451 18.8454 30.9067 23.1251 10.2475 19.2191 11.0868 9.39294 12.406 12.0677 10.9728 9.21081 8.84244 16.0893 8.13175 19.3184 7.36855 7.25191 7.24639 11.3028 12.1598 7.22978 7.10094 6.97119 6.94899 9.31307 17.6202 12.1793 12.1232
threshold=-0.23243613138686187 -0.030557304089460596 -0.033112380844172139 0.84274900859198143 -0.22570711678832103 0.10333754178187156 0.00011403298678415001 0.00011396428645365001 0.53328950799111607 0.52214683843712273 0.15050182481751781 0.39088230093984477 0.38130451863323311 9.7540063239561474e-05 9.2827519421106669e-05 -0.00081986833786589994 -0.0017208345889762999 -0.0006851390270102498 -0.00019311974380094995 0.32767342080612588 -4.6458395249130112e-05 0.16760948905109482 0.052734919996996706 8.7913834567913634e-05 0.053786496350365108 -0.10954063879833593 0.067039233576642307 -0.00072905636983984989 0.24404653284671537 9.8168114972425432e-05 -0.10463047445255479 0.032185218978102205 0.00010973063642885002 4.9903605108273296e-05 0.81667194840109436 0.68603321026884678 7.2522604937518679e-05 -0.14878907173122161 0.075068430656934207 7.6025346319298466e-05 0.20802919708029169 0.98255307610547782 0.11631995757902522 0.11398633062353357 0.23151529113204636 0.00011349931832345 0.11492708843000797 -0.012956204379562098 0.10570255474452561 -0.078059349853495094 0.087400851193541559 -0.065123175182481632 0.026315592374039003 0.17116788321167872 0.16333443548055013 0.12844997730368221 1.0000000180025095e-35 0.22249087591240893 -0.0068822236206912994 0.00013307396464670002 0.35660066243523669 0.5865242586431122
decision_type=10 2 2 2 10 2 2 2 2 2 10 2 2 2 2 2 2 2 2 2 2 10 2 2 8 2 10 2 8 2 10 10 2 2 2 2 2 10 10 2 10 2 8 2 2 2 10 8 8 2 2 8 2 10 2 2 10 10 2 2 2 2
left_child=1 2 49 4 -2 10 7 8 9 11 13 12 16 23 15 28 -6 -18 -19 20 44 22 -22 24 -5 26 -24 -7 -13 30 -27 -32 33 -10 35 36 -35 -17 39 -39 41 42 45 -42 -20 46 55 -21 -49 -1 -8 -38 53 -53 -33 -29 -52 58 60 61 -58 -60
right_child=3 -3 -4 5 6 27 50 -9 32 -11 -12 14 -14 -15 -16 37 17 18 19 47 21 -23 25 -25 -26 29 -28 40 -30 -31 31 54 -34 34 -36 -37 51 38 -40 -41 43 -43 -44 -45 -46 -47 -48 48 -50 -51 56 52 -54 -55 -56 -57 57 -59 59 -61 -62 -63
leaf_value=0.033483527266503811 -0.078170402184241206 0.06934557332547657 -0.078003964849926805 -0.086058094000124721 -0.079967082507204065 0.039324416386582649 0.059003853363589147 -0.07813169481413007 0.013411222335848542 -0.079524951885788953 -0.07540911618327914 0.038479500545942645 -0.078539803241130635 -0.085423850338244803 -0.089222771732361095 0.086088534642081299 0.051985843100007756 -0.079831518397809664 0.00098121177826063807 0.042282215397126011 -0.081268056455795434 -0.080704280886622112 -0.08685130390118101 0.087539538411642526 0.041323091801819402 0.063708299367493046 0.037458194402115647 -0.081056829663163146 -0.081161236066929932 0.059527898486932754 -0.088824982842416592 0.039029987633915256 0.056923128175821583 -0.084458523101668848 0.041049100816523687 -0.066101247760784923 0.061777902234645424 -0.0020103737303081015 0.038634284729380325 -0.091101503185624932 0.063984857490127889 0.024623872766311432 -0.083253466792201677 -0.021547362939697019 0.062691087213042632 0.051279186496582141 0.088471993972339014 -0.08775247050691462 0.036905236041822054 0.074974186055716971 0.024563152558861809 -0.06443660083194673 0.041370815023042025 0.050736427487049575 -0.041344453257513208 -0.0056989297755195324 0.0093887551490010011 0.043087431055726849 0.0091484426219723171 0.024353910961080402 -0.087198642364934131 -0.091914753143412339
leaf_weight=14.249982107430695 45.593006290495396 305.74392641708255 47.334471374750137 8.6904634963721055 11.281149100512264 14.845468111336229 9.2966138795018178 46.586959704756737 194.83763661980629 29.879768632352352 130.58781569078565 2.6855000928044301 36.29559001326561 8.7343027088791114 5.8585890270769587 5.7958834730088702 29.388401493430138 15.788869690150021 21.367764718830589 18.03369265049696 10.541124533861874 32.258993566036224 8.5894946865737349 5.2258116640150538 11.850817941129209 4.9954218808561555 2.9157186448574057 8.8907094979658847 9.6770425960421544 8.5079414714127761 6.4759051352739503 7.3518398404121381 10.607884473167358 6.1432673707604399 12.65017321705818 27.257281797006726 8.2820368781685811 24.196280350908641 41.301308544352651 4.0810106601566067 7.3729539513587934 9.3228593543171865 10.978042935021216 7.6302598249167204 8.4334031641483289 3.746620310470461 2.2952267881482831 4.9330674782395363 8.4003666900098342 42.965833887457848 69.456620721146464 7.5758368503302389 11.605998642742632 3.285690899938345 4.5168528221547604 4.8212754987180224 6.2163508869707567 8.9985918030142766 5.4416956678032857 34.865449358243495 6.8715693904086947 6.5259644463658333
leaf_count=29 368 358 369 66 92 34 18 367 680 400 1137 8 385 72 42 7 46 142 92 40 105 270 74 6 41 9 10 102 80 18 46 21 20 59 27 220 14 126 130 28 13 34 112 37 9 11 3 39 23 52 164 63 29 10 35 34 26 20 17 88 62 35
internal_value=4.35933e-10 0.0516902 5.92217e-05 -0.018925 -0.012045 -0.0448548 -0.00845612 -0.0137268 -0.00908067 -0.021868 -0.0629619 -0.0167049 -0.0251727 -0.0158494 0.00501511 0.0113078 -0.0156674 -0.0118992 -0.0234096 -0.0173627 -0.0275758 -0.0434946 -0.0212224 0.00773439 -0.0125685 -0.00662254 -0.0553481 -0.00209149 -0.0551718 0.0109798 -0.00671709 -0.0258946 0.00739026 0.00545593 -0.0147262 -0.0257249 0.00410617 0.0222114 0.0168905 -0.0148681 -0.0132586 -0.025898 -0.0412244 0.0204853 0.0184444 -0.017867 -0.0340512 0.0203918 -0.00921528 0.0646407 0.016256 0.0218 0.0070632 -0.0295959 0.00844199 -0.0545602 0.013384 0.00211782 -0.00403476 0.00638567 -0.0413227 -0.0459613
internal_weight=1530.94 410.294 104.55 1120.64 885.65 234.993 840.057 692.384 645.797 363.551 165.089 333.671 240.076 34.5014 93.5956 87.737 203.78 192.499 163.11 147.322 115.954 86.1533 53.8943 25.7671 20.5413 43.3532 11.5052 69.9034 12.3625 31.848 23.34 18.3446 282.246 271.638 76.8003 64.1501 36.8928 75.3745 69.5786 28.2773 55.0579 40.0547 30.7319 15.0032 29.8012 19.7538 16.0072 31.3671 13.3334 57.2158 147.673 30.7496 22.4675 10.8615 11.8687 13.712 138.376 68.9196 59.921 46.8331 13.0879 11.9677
internal_count=7074 808 450 6266 4564 1702 4196 3766 3399 2277 1322 1877 1456 185 421 379 1071 979 933 791 689 588 318 113 107 213 84 380 88 129 111 102 1122 1102 422 395 175 291 284 154 346 296 262 50 101 150 139 102 62 81 430 116 102 73 56 136 412 248 228 140 88 52
is_linear=0
shrinkage=0.05


Tree=5
num_leaves=63
num_cat=0
split_feature=1 0 0 6 1 0 2 2 6 6 1 6 6 2 2 2 2 6 2 2 1 2 0 1 1 2 1 6 2 6 1 1 2 0 1 1 0 1 6 6 2 6 2 1 0 1 1 1 6 0 2 2 1 1 1 2 1 0 1 0 6 6
split_gain=501.87 123.627 179.116 61.518 70.165 54.9866 35.9673 69.171 50.5173 34.1427 30.69 22.2294 51.3199 17.5187 17.2393 43.9334 19.3558 18.5025 20.2429 16.6468 15.8374 15.839 15.1278 14.3182 13.0567 11.5544 11.2377 10.8584 10.7416 24.7486 10.0954 12.5407 11.6238 9.47015 8.13589 18.7712 7.86915 15.6785 7.85841 6.91376 7.09282 8.55687 6.84523 6.27777 7.42935 17.2413 9.46841 6.52947 6.23208 5.70424 5.61636 10.5988 22.4753 8.44229 8.83262 8.08057 6.95619 11.9451 14.092 11.1228 12.5845 10.3934
threshold=-0.23243613138686187 -0.030557304089460596 -0.033112380844172139 0.84274900859198143 -0.22570711678832103 0.10333754178187156 0.00011403298678415001 0.00011396428645365001 0.53328950799111607 0.52214683843712273 0.15050182481751781 0.39088230093984477 0.38130451863323311 9.7540063239561474e-05 -0.0017208345889762999 -0.0006851390270102498 -0.00019311974380094995 0.25594211307449261 -4.6458395249130112e-05 -0.00081986833786589994 0.16252281021897816 2.2279180282693476e-05 0.25020374489331504 0.15050182481751781 0.21195255474452576 6.2114317666354922e-06 0.10120894160583972 0.94994184908930623 8.7913834567913634e-05 0.85974570186951593 -0.14878907173122161 0.075068430656934207 7.6025346319298466e-05 0.30971316283579237 0.11631995757902522 0.15821167883211637 0.38180047971773329 0.30586222627737231 0.95849322019786254 0.49089482510154625 -0.00013694093408904998 0.44266629601989843 -0.00072905636983984989 -0.056751824817518191 0.016759392151202552 0.059534671532846604 0.073631386861314069 -0.014438868613138398 0.087400851193541559 -0.078059349853495094 -0.00072905636983984989 -0.0001249487887072 0.17365419708029203 0.23070255474452517 0.22547901459854033 0.00010973063642885002 0.055542883211678606 0.040019899517189657 0.15859945255474422 0.059849030248003011 0.79476430933600162 0.81950857428911539
decision_type=10 2 2 2 10 2 2 2 2 2 10 2 2 2 2 2 2 2 2 2 8 2 2 10 8 2 10 2 2 2 8 10 2 2 10 10 2 10 2 2 2 2 2 10 2 10 10 10 2 2 2 2 8 10 8 2 10 2 10 2 2 2
left_child=1 2 49 4 -2 10 7 8 9 11 13 12 14 28 -6 -16 -17 18 -18 33 21 25 -19 -23 -24 -20 27 -7 29 -5 -21 32 -32 -13 -28 -36 43 -38 -29 40 -33 -42 -37 -10 45 47 -47 -45 -8 -1 -46 52 -52 54 55 56 -53 -58 59 -59 -61 -60
right_child=3 -3 -4 5 6 26 48 -9 36 -11 -12 19 -14 -15 15 16 17 22 20 30 -22 23 24 -25 -26 -27 34 38 -30 -31 31 39 -34 -35 35 42 37 -39 -40 -41 41 -43 -44 44 50 46 -48 -49 -50 -51 51 53 -54 -55 -56 -57 57 58 61 60 -62 -63
leaf_value=0.033772946666092478 -0.074962763383640649 0.065932212880603414 -0.074816697030268095 0.038338619805707921 -0.076599018192877705 -0.080831173230405784 0.05440515863388367 -0.074930650958131104 0.029906117890209367 -0.07595808249244955 -0.071992886440419263 -0.077308124638873293 -0.075216494179684623 -0.079916991602116294 0.047135332641649437 -0.076289681581171734 0.009212355400816408 0.017413885240497372 -0.044280616790918652 0.078746353160241422 -0.076487538918907527 -0.082463906303937726 0.03323163989901267 0.053586120466061066 -0.077246427832264097 0.053187530850213077 0.054492736149111043 0.04164233471779491 0.078220725983025818 -0.079091688802037041 -0.0020276263554128964 0.046298869658302266 -0.082181331211652831 0.031530514742191554 -0.080543812678305515 0.049491965881489963 -0.080511183297860348 0.030642413192058161 -0.046426247076226293 0.056187200778724501 0.020091880367686332 -0.048887255081491249 -0.00044385895238042809 -0.010120392611821747 0.034544551949434059 0.054309252748527638 -0.012943563204586967 -0.085991679411694957 0.011674621939952312 0.07190690372924409 -0.084405235601694217 0.022280272697310602 0.033918027892100945 -0.040024451887687544 0.069620476744408008 0.064038745582373005 0.023238815684441524 -0.088794585974303272 -0.019765825986388326 0.011813890887651814 -0.069092407190968805 0.052886176174960359
leaf_weight=13.052490843459962 41.793216608464718 283.03414076939225 43.46156270802021 10.951254148967573 10.458236880600451 8.1588549949228781 9.1249610185623151 42.724386908113956 31.437872657552361 26.85774002969265 111.04161298368126 8.7058552131056768 42.193876348435879 7.8500867262482634 27.847005717456341 14.434754839166997 21.053179953247309 49.033724557608366 4.7946709245443406 5.3806410413235426 26.093028925359246 11.379637219011782 3.8328849598765355 2.3298155218362799 8.8479535803198797 8.3115663826465589 7.9131936049088827 4.9594179578125459 4.2656795568764201 7.6007854770869008 23.132944712415341 9.843079902231695 5.6224980447441331 2.594172589480876 6.2557595307007423 9.5911738947033829 7.1397256031632406 5.7093931436538696 5.1772037148475647 12.588323917239903 11.916900135576727 7.2197421528398982 24.125497498549525 4.2172529045492402 20.735076881945133 8.1832296922802943 14.519281256012617 8.656252662651239 131.50808430882171 39.432895600795746 8.9662026185542327 53.021031953394413 7.2653692252934006 7.6845785062760106 6.7457318082451811 6.8349127005785695 30.657375411130488 8.0989009281620401 10.060579571872951 12.428984020836653 7.8367747329175463 9.6391133293509466
leaf_count=29 368 358 369 35 92 95 18 367 104 400 1137 81 385 72 46 142 84 171 40 9 263 113 13 6 78 23 22 18 6 72 126 28 58 7 68 19 79 15 43 33 37 42 115 25 45 19 82 69 412 52 88 173 22 41 11 12 100 58 54 55 54 16
internal_value=-4.73649e-10 0.0493052 0.0002571 -0.0178409 -0.0118106 -0.0421914 -0.00850179 -0.0134138 -0.00913543 -0.0218257 -0.0597646 -0.0172482 -0.0253731 -0.0154884 -0.0142111 -0.0105447 -0.0212449 -0.0153886 -0.0322551 0.0042872 -0.0487556 -0.0217709 0.00482492 -0.0593433 -0.0438535 0.0175306 -0.00456323 -0.037896 0.00667734 -0.00977267 0.012737 0.00768643 -0.0176999 -0.0523218 0.00817211 -0.000997812 0.00706484 -0.0311211 -0.00333803 0.0252479 0.0118084 -0.0059321 0.0137611 0.00897409 0.00605652 -0.0149132 0.011298 -0.0611369 0.0144472 0.0624234 0.00998346 0.00697426 -0.0314429 0.0110497 0.0137504 0.0110308 0.00828067 -0.0011484 -0.0167036 -0.039266 -0.0194726 0.015783
internal_weight=1426.33 378.981 95.9469 1047.35 839.461 207.891 797.667 657.034 614.31 344.472 141.709 317.614 230.61 30.6678 188.416 177.958 150.111 135.676 73.9619 87.0042 52.9087 26.8157 61.7146 13.7095 12.6808 13.1062 66.1811 18.2955 22.8177 18.552 75.7041 70.3235 28.7554 11.3 47.8856 39.9724 269.838 12.8491 10.1366 41.568 28.9797 19.1366 33.7167 256.989 225.551 35.576 22.7025 12.8735 140.633 52.4854 189.975 169.24 16.2316 153.008 145.323 138.578 131.743 78.7217 48.0644 28.3647 20.2658 19.6997
internal_count=7074 808 450 6266 4564 1702 4196 3766 3399 2277 1322 1877 1456 185 1071 979 933 791 529 421 445 182 262 119 91 63 380 156 113 107 333 324 184 88 224 202 1122 94 61 140 107 79 134 1028 924 195 101 94 430 81 729 684 110 574 533 522 510 337 237 167 109 70
is_linear=0
shrinkage=0.05


Tree=6
num_leaves=63
num_cat=0
split_feature=1 0 0 6 1 0 2 2 6 6 1 6 6 0 2 6 1 6 2 1 6 2 2 1 2 1 6 1 1 1 1 1 2 2 6 0 1 6 6 2 1 1 1 1 1 2 6 2 2 2 6 0 6 6 6 1 1 0 2 1 2 2
split_gain=423.357 106.329 151.093 53.0387 60.7056 48.0574 29.6251 59.9528 42.0879 29.408 26.0936 21.0347 43.9568 15.7176 24.722 22.8565 18.3069 14.756 13.7434 11.8939 12.2067 15.3463 15.114 9.08681 8.90015 8.87922 10.3385 8.44156 10.765 7.46335 7.41066 12.1059 12.7057 7.09775 6.87246 6.59233 12.2484 5.83168 5.945 10.483 6.39451 18.6702 6.36305 6.36253 5.38875 5.21166 10.9921 4.98044 6.35647 17.9308 9.14659 19.6989 5.43013 22.9585 13.4814 14.5889 8.21718 8.54435 6.96143 24.0832 6.86754 6.80863
threshold=-0.23243613138686187 -0.030557304089460596 -0.033112380844172139 0.84274900859198143 -0.22570711678832103 0.10333754178187156 0.00011403298678415001 0.00011396428645365001 0.53328950799111607 0.52214683843712273 0.15050182481751781 0.39088230093984477 0.38130451863323311 0.25020374489331504 -0.0006851390270102498 0.25594211307449261 0.33759124087591214 0.93107941291852092 -0.00081986833786589994 0.24098996350364985 0.052734919996996706 2.2279180282693476e-05 -0.00013694093408904998 0.24098996350364985 -0.0016088698530998997 0.26630930656934343 0.94168495245887207 -0.14878907173122161 -0.011185858870793099 0.16026459854014602 -0.0073448905109491994 0.075068430656934207 -1.9091860469203615e-05 0.00010628173195840001 0.33340768245421415 0.38180047971773329 0.30586222627737231 0.26022551123361576 0.31305047982941098 7.6799076797906814e-05 0.10736770072992692 -0.012956204379562098 -0.076916058394160991 0.28941605839416057 -0.11243156934306549 -1.5960424619381458e-05 0.95849322019786254 0.00010973063642885002 4.9903605108273296e-05 6.8883959457195535e-05 0.81667194840109436 0.040019899517189657 0.66873402380278668 0.63694421284504699 0.67994196630400916 0.056981913670238006 0.11124543795620422 0.066247430157216666 -7.2218766015320882e-05 0.23641206801002521 -0.00010461888955284998 -0.00079479832176984979
decision_type=10 2 2 2 10 2 2 2 2 2 10 2 2 2 2 2 10 2 2 10 2 2 2 10 2 10 2 8 10 10 8 10 2 2 2 2 10 2 2 2 10 8 10 10 10 2 2 2 2 2 2 2 2 2 2 10 10 2 2 10 2 2
left_child=1 2 34 4 -2 10 7 8 9 11 17 12 13 14 -6 19 -15 -5 23 20 -16 22 -22 -13 -7 26 33 -20 44 -23 -30 32 -32 -26 -1 47 -37 -17 39 43 41 42 -40 -39 -29 46 -28 48 52 -50 51 -51 53 58 -54 61 -57 60 59 -10 -58 -56
right_child=3 -3 -4 5 6 24 -8 -9 35 -11 -12 18 -14 16 15 37 -18 -19 27 -21 21 29 -24 -25 25 -27 45 28 30 -31 31 -33 -34 -35 -36 36 -38 38 40 -41 -42 -43 -44 -45 -46 -47 -48 -49 49 50 -52 -53 54 -55 55 56 57 -59 -60 -61 -62 -63
leaf_value=0.020983726009328369 -0.072317670389524885 0.062990227100122656 -0.0721883351125127 0.0067969951111199233 0.043191559607426544 0.047561340725692125 0.01324161197933546 -0.072291112676932986 -0.085856304104221987 -0.073115516161648866 -0.069208342876362933 0.039193589509397664 -0.072526095007145061 -0.055515972118253445 -0.06565926727371113 0.06200667870001976 0.050972767283623238 -0.074588362874714639 0.075755581046687129 -0.067476132156151392 -0.07694646813637461 -0.07841003823150372 0.028587007060472409 -0.074265309137470689 -0.062234752469861404 0.03444878880552487 0.01937781031822388 0.019103583023032035 0.076594426066800739 0.012475710963748884 0.020681533460555263 0.025162326628036986 -0.079152501428425379 0.0083041996846467386 0.067962151572840288 -0.077048030995190475 0.025553698580168538 -0.084741536006170376 -0.0037113223303635759 0.032331801332839846 0.056801240861802361 -0.082618380390902052 0.056101110595918546 0.0040487915310707849 -0.061735131297407743 0.020068031622539759 -0.082576514287407282 0.044560595541151687 -0.06534447318716867 0.011442508226411107 0.048551481309418505 -0.078723085970988427 0.061237807555618168 -0.072254637752440301 0.075994478739139615 -0.046879309528038197 0.067628096513885946 -0.024475354539733884 0.023482499825738346 0.055963338507088269 0.0031095177217229635 0.022431514533890629
leaf_weight=9.7052824031561595 38.506864167749882 263.46237962320447 40.090084336698055 20.759098198730502 21.496168456971645 7.3228792361915103 135.25873766513541 39.375717274844646 6.4532906934618932 24.521504029631615 102.71682071872056 2.2709872499108297 38.826029483228922 33.084980120882392 11.748190211132167 4.9892060309648505 4.5967153497040263 7.6116102039813986 4.998781206086278 18.862939363345504 3.9733880739659062 8.7912418693304044 23.212339989840988 7.9159862883388996 15.906535136513414 8.9655280783772451 6.0043717762455362 2.8710167184472084 4.76091068983078 3.0398919321596614 6.1698092445731163 39.302079416811466 6.592106778174637 4.596742156893014 39.344676770269871 6.3356184661388379 5.3778141364455223 5.9491348806768638 8.4140907153487241 5.6349301636219016 7.7609015032649031 4.8630711790174308 9.4299035640433395 3.053038202226162 7.3116513956338149 15.097239679656921 4.7233531726524234 9.1932497918605787 10.766748783178626 33.659181909170002 9.9957124292850477 7.3870096262544385 15.839594125747679 9.3226736318320018 6.8411423712968817 11.074225497432051 6.4424805119633701 15.39492226205766 38.593524065800011 5.5836254879832268 11.463451765477656 44.69077855348587
leaf_count=23 368 358 369 106 44 16 430 367 54 400 1137 7 385 257 125 8 12 79 9 185 46 102 92 81 161 28 32 12 8 14 26 140 73 23 58 79 15 54 23 17 18 43 25 6 65 75 45 20 100 150 20 81 32 60 9 79 16 78 137 12 41 139
internal_value=4.5844e-10 0.0470193 -0.000184368 -0.0168196 -0.0110837 -0.0402719 -0.00795438 -0.0125917 -0.00853076 -0.0204697 -0.0574845 -0.0161654 -0.0243012 -0.0138351 -0.00617952 -0.0150441 -0.0425256 -0.015038 0.00538586 -0.0335747 -0.0209778 -0.00752402 0.0131625 -0.0489719 -0.0042376 -0.0110976 -0.0199119 0.013076 0.00840011 -0.0550579 0.0168836 0.0114235 -0.0308873 -0.0464202 0.0586668 0.00669434 -0.029942 0.0107123 0.00503846 -0.0211511 0.0176202 0.00422871 0.0278974 -0.0546288 -0.0389425 0.001134 -0.0255121 0.00846251 0.00704132 -0.00670818 0.00566052 -0.00478443 0.0119909 -0.000148639 0.0185039 0.0114461 -0.00956865 0.00283904 0.0131284 -0.0200697 0.026323 0.0295423
internal_weight=1338.3 352.602 89.14 985.702 791.997 193.704 753.49 618.232 578.856 324.441 131.088 299.919 217.726 178.9 141.218 119.722 37.6817 28.3707 82.1933 69.628 50.7651 39.0169 27.1857 10.187 62.6166 55.2938 46.3282 72.0064 67.0076 11.8311 56.8249 52.064 12.7619 20.5033 49.05 254.415 11.7134 50.0943 45.1051 14.6371 30.468 22.7071 17.844 9.00217 10.1827 25.825 10.7277 242.702 233.508 61.8087 51.0419 41.0462 171.7 59.9531 111.747 95.907 44.3751 33.3009 50.6304 12.0369 17.9059 51.5319
internal_count=7074 808 450 6266 4564 1702 4196 3766 3399 2277 1322 1877 1456 1071 802 758 269 185 421 564 379 254 138 88 380 364 336 333 324 116 247 239 99 184 81 1122 94 194 186 77 109 91 48 60 77 152 77 1028 1008 351 251 231 657 263 394 362 214 135 203 66 57 148
is_linear=0
shrinkage=0.05


Tree=7
num_leaves=63
num_cat=0
split_feature=1 0 0 1 1 2 1 1 0 2 2 0 1 2 2 1 2 1 2 2 0 2 0 2 0 1 1 1 2 0 2 1 6 0 6 2 6 0 0 1 0 6 6 1 2 2 1 2 1 1 1 6 1 2 2 2 2 2 2 6 2 2
split_gain=361.299 90.5667 130.492 45.5724 41.5185 37.2027 69.2855 44.2655 42.5212 35.7556 31.2631 23.9077 23.692 22.2754 31.5739 17.3369 16.6929 22.611 22.6048 19.6038 19.086 15.5132 14.8195 14.7729 13.2818 15.8015 11.0871 10.8784 17.1803 10.5623 11.6655 13.3207 10.2515 27.9886 9.51082 9.63227 9.17092 7.84514 9.77584 7.80129 8.23483 7.62269 7.55816 7.18547 7.43665 14.5481 7.60006 14.5816 6.50225 18.6882 6.43581 6.07252 5.86597 5.77952 6.18011 5.39424 5.21086 5.04952 8.59591 4.60795 4.40895 18.5362
threshold=-0.23243613138686187 -0.030557304089460596 -0.033112380844172139 -0.18081660583941617 -0.14236941487679702 -4.0098649573833973e-05 0.19101277372262773 0.026893248175182401 -0.0054057143151879494 0.00011403298678415001 1.890303971093034e-05 -0.059676605249040691 -0.020962591240876096 -0.00241851819515345 -0.0013483350269747499 -0.0012773722627733998 -0.00015073433566324996 0.27132755474452558 -0.0006851390270102498 -0.00081986833786589994 0.17650687079602176 -2.6065314793447845e-05 0.26454464057277877 0.00015462180424525004 0.091970439070696963 0.22819343065693443 -0.026938868613138597 -0.008394160583941648 5.572122908155113e-05 -0.020777595634066299 9.4309703025822596e-05 0.067039233576642307 0.21751895575627853 -0.069402888622826134 0.33782443377279714 0.00010973063642885002 0.55109825849482996 -0.052269123715594092 0.031360030743329013 0.070308053411484814 0.13696081273469926 0.85562429884212021 0.32767342080612588 0.16327554744525563 -5.0024736197483035e-05 -7.8019502688341649e-05 0.11492708843000797 -8.0057952791254703e-05 0.051140510948905107 0.031318430656934258 -0.11272810218978079 0.33340768245421415 0.045506386861313662 0.00014629227408775004 0.00015878431299600005 8.0373688227324927e-05 -6.3186404812953532e-05 -0.00022153601185234995 -0.00019311974380094995 0.76059634831406797 9.0390587259536864e-05 3.1891946693367297e-05
decision_type=10 2 2 10 10 2 10 10 2 2 2 2 10 2 2 8 2 10 2 2 2 2 2 2 2 10 10 10 2 2 2 8 2 2 2 2 2 2 2 10 2 2 2 10 2 2 10 2 10 10 10 2 8 2 2 2 2 2 2 2 2 2
left_child=1 2 51 23 42 12 7 9 -8 10 15 26 -6 59 -15 -7 17 18 19 20 -16 -9 29 -2 25 -10 34 50 -29 30 31 -23 -11 -34 35 -12 -31 -35 53 48 41 -41 -5 44 45 46 47 -18 49 -38 -13 -1 -51 -39 -55 -36 -45 -20 -59 -14 61 -3
right_child=3 60 -4 4 5 6 8 21 24 32 11 27 13 14 16 -17 43 -19 57 -21 -22 22 -24 -25 -26 -27 -28 28 -30 36 -32 -33 33 37 55 -37 39 38 -40 40 -42 -43 -44 56 -46 -47 -48 -49 -50 52 -52 -53 -54 54 -56 -57 -58 58 -60 -61 -62 -63
leaf_value=0.020069417186275584 -0.072219396844444866 0.065188190990903172 -0.069943668780364024 0.00037976862795880361 -0.081400731988063954 0.026399883116315588 0.06017424166315602 -0.058631523910101749 0.01256494706965706 0.049939608348518558 -0.079378649885254213 0.018600695828745545 -0.074336364686645839 0.056309582754203183 0.026960924539461875 -0.08261482781848678 -0.038573661171791319 0.033706101599968619 -0.074589999922215711 0.039718187469972847 -0.077294749705682356 -0.075338691269373148 -0.074181709478229177 0.064890362006090122 -0.06616992927530041 -0.086608543469454083 -0.061071702446923108 0.026018218582578953 -0.081302051746640014 0.035833398606207247 -0.064288949204574827 0.02146515190050054 -0.085423902739696106 0.056854627721564202 -0.0049880036719404768 0.04682087133640056 0.056394425193033275 -0.054429602972552442 0.038013794153291626 -0.00018778489758737151 0.053833607941248696 -0.048822941151482772 0.058972198901336537 0.038930046699291496 0.03756045885063098 -0.065181371255120288 0.039945702929660432 0.072412671501204035 0.036462402602248666 -0.085121602470661209 -0.05868216486840995 0.065484672409709108 -0.001389392851099559 0.034046705526567425 -0.031692782786739267 0.051507010087508492 -0.0038839508581289014 0.003727488761799336 -0.078884506388866488 -0.0084405133209469307 0.067264021116251321 0.021706070941875679
leaf_weight=9.2184241758659464 41.638843968510628 94.080067802220583 37.017594039440155 7.2901154607534435 8.2572515318170172 25.862133760936558 7.8329304829239836 9.4640097171068174 12.190605012699963 11.34319258853793 4.7068886440247359 2.7507696375250807 10.066254239529369 30.068675920367241 7.2870540469884899 4.2457717582583454 12.759717294946311 18.611038058996201 19.599078025668856 16.142988208681345 11.041754230856894 4.4364994149655121 5.4950781874358645 2.0618533939123145 112.50396032538265 5.9900797903537741 6.8176563540473571 10.131074737757446 5.9013341255486003 37.442277506925166 9.368041994282974 17.859338447451595 8.503197272308169 8.517952334135769 6.8023645468056229 2.22757238894701 7.3486871160566833 7.064937666058543 12.661147164180873 68.107755844015628 6.2262918949127188 9.1373959807679039 22.46367859095335 35.096048038452864 11.433418098837135 8.6834376491606253 11.572761032730339 3.8530651405453709 32.752049908973277 5.257897065021095 130.23179696314037 36.519769951701164 3.4734920598566541 7.0789234787225706 7.2227809634059668 11.152507863938807 8.9113926216959936 6.8763386346399784 5.8087270483374613 3.6023725867271414 118.48810724169016 33.144659865647554
leaf_count=23 416 132 369 23 82 91 14 107 44 26 51 11 100 56 19 39 90 51 232 39 91 52 77 4 1433 44 63 40 63 135 81 72 64 20 31 7 18 30 35 339 15 102 45 99 39 66 39 7 109 44 1260 58 22 13 30 29 39 41 63 14 173 53
internal_value=5.39149e-11 0.0450871 -0.000152893 -0.0159033 -0.0134489 -0.015463 -0.0217596 -0.0129266 -0.05298 -0.0263056 -0.0361453 -0.0440041 0.001757 0.00485822 0.00892618 0.0110268 0.000907371 -0.0150294 -0.0286164 -0.000459323 -0.0358454 0.00396799 0.00683134 -0.0657504 -0.0597622 -0.0201102 -0.00457922 -0.0523928 -0.0134851 0.00904163 -0.0174694 0.0022028 0.00694389 -0.00260986 0.0108951 -0.0388393 0.0139869 0.0139414 0.00319916 0.0078043 -0.00148219 -0.00594088 0.0446162 0.0156455 0.00233011 -0.00859515 0.008838 -0.0128322 0.0236782 -0.00236079 -0.0570836 0.0563313 -0.0518115 -0.0174308 0.000846332 0.0301034 0.0302603 -0.0586815 -0.0341021 -0.0569695 0.0603238 0.0538602
internal_weight=1259.7 328.469 82.7558 931.234 887.534 857.78 628.108 489.591 138.518 273.222 210.83 180.722 229.671 221.414 207.745 30.1079 177.677 85.367 66.7559 34.4718 18.3288 216.369 206.905 43.7007 130.685 18.1807 31.707 149.015 16.0324 201.41 31.6639 22.2958 62.3921 51.0489 24.8893 6.93446 169.746 42.5457 34.0278 132.304 83.4714 77.2452 29.7538 92.3098 48.3024 36.869 28.1855 16.6128 48.8321 16.0801 132.983 45.7382 8.73139 21.3666 14.3017 17.9549 44.0074 32.2841 12.6851 13.6686 245.713 127.225
internal_count=7074 808 450 6266 5846 5778 4611 3076 1535 1903 1685 1555 1167 1085 971 130 915 536 485 149 110 1173 1066 420 1521 88 181 1374 103 989 205 124 218 192 118 58 784 128 108 649 456 441 68 379 241 202 136 97 193 84 1271 81 66 73 43 60 138 336 104 114 358 185
is_linear=0
shrinkage=0.05


Tree=8
num_leaves=63
num_cat=0
split_feature=4 0 0 6 0 2 2 6 6 0 2 2 2 0 6 2 2 2 2 2 6 0 2 2 0 2 2 2 6 0 6 2 2 2 2 6 0 2 2 2 0 2 2 2 0 2 2 2 2 2 2 6 2 6 2 0 0 2 0 2 2 6
split_gain=312.422 82.0832 113.092 47.9805 40.0732 31.1763 41.7248 42.5116 27.3835 21.8121 15.3492 12.8681 21.3922 20.1375 23.1066 15.3368 14.2328 31.9516 12.5215 10.5001 10.6051 8.99582 9.76439 8.68965 7.49757 12.4571 6.89187 6.77355 5.76205 7.31601 5.89597 8.09591 5.34941 6.53264 7.68396 5.14996 4.6125 7.8489 4.53086 4.45856 18.6472 6.22801 7.66711 9.07684 10.7726 4.0828 12.8677 5.70843 5.20482 5.50394 4.90035 4.53055 5.22738 12.6916 13.5529 9.22091 4.5141 6.53414 8.71247 4.48151 4.07401 3.98711
threshold=1.5000000000000002 -0.030557304089460596 -0.033112380844172139 0.84274900859198143 0.10333754178187156 0.00011403298678415001 0.00011396428645365001 0.53328950799111607 0.49469075337942225 0.30971316283579237 -0.00013694093408904998 -6.705071516870799e-05 -0.0017208345889762999 -0.059676605249040691 0.39088230093984477 9.8168114972425432e-05 -0.0006851390270102498 -0.00020379884234374997 2.8665945605687761e-05 5.1856364806907101e-05 0.47775066131562222 -0.2029689349234646 9.7540063239561474e-05 5.9105733596714629e-05 0.24552590888456829 -0.00014316088962129997 -0.00072905636983984989 2.2279180282693476e-05 0.32767342080612588 -0.090299744150547243 0.25594211307449261 1.6342905919892844e-05 -0.00014316088962129997 -9.7874414195388116e-05 -4.4266500201144576e-05 0.45907025421448883 0.23151529113204636 6.2114317666354922e-06 -8.0057952791254703e-05 -0.00076655496549979992 0.32434775306399383 -0.0001249487887072 -0.00021153651871474996 -0.00023269036751364999 0.084794055626757917 2.2279180282693476e-05 3.1891946693367297e-05 3.2950342960633981e-05 1.535791496614118e-06 4.6828746085566335e-06 0.00010973063642885002 0.81667194840109436 4.9903605108273296e-05 0.65884460078170004 7.2522604937518679e-05 0.048685092642385151 0.056360616720992206 -7.8019502688341649e-05 0.071722237238604117 1.7468570008357226e-05 -0.00012558480887644999 0.94994184908930623
decision_type=10 2 2 2 2 2 2 2 2 2 2 2 2 2 2 2 2 2 2 2 2 2 2 2 2 2 2 2 2 2 2 2 2 2 2 2 2 2 2 2 2 2 2 2 2 2 2 2 2 2 2 2 2 2 2 2 2 2 2 2 2 2
left_child=1 2 -1 5 10 6 7 8 11 23 -5 12 -2 28 15 27 -14 -18 35 -20 -21 22 -12 -10 25 -19 -6 36 29 30 31 -13 -28 -34 -35 -16 37 -15 60 -9 41 42 43 44 -41 48 -47 -48 56 -50 51 52 55 54 -54 -49 -43 -58 -59 -51 -27 -36
right_child=3 -3 -4 4 26 -7 -8 39 9 -11 21 13 16 14 18 -17 17 24 19 20 -22 -23 -24 -25 -26 38 32 -29 -30 -31 -32 -33 33 34 61 -37 -38 -39 -40 40 -42 45 -44 -45 -46 46 47 50 49 59 -52 -53 53 -55 -56 -57 57 58 -60 -61 -62 -63
leaf_value=0.058767910098280585 -0.070694593250087201 0.059244737009856434 -0.068041422613405886 0.024796289438587304 0.030964960676526723 0.013776373384643735 -0.068348184693685893 0.028485418653907399 -0.06061111161525299 0.046950391774162714 0.041267005295368482 0.019633178878063921 0.040397685310305277 -0.057749252935112232 -0.083875779885753829 0.047549103007298268 -0.071029817921698088 -0.08058893252006466 0.053283712823488316 -0.046903518414341462 0.041384593899504378 -0.061812472127392881 -0.074615896967016634 0.0041274941240220797 0.04538981593819584 0.036701344342540181 -0.056171619015533129 -0.068874957389013169 0.024169006857185312 -0.079880610983649417 0.033284266079688478 -0.050429078222487378 0.039598431414261739 -0.078606647592970244 -0.024852381915338548 -0.00099741999038233825 0.013957089633285714 0.025541689171450544 0.058429761442836417 -0.081814072434485241 -0.074340738770234366 0.017457547387947105 -0.077030455529434549 0.05550953038807082 0.047295950043169027 -0.081081653092425918 0.065731941186285919 -0.021430542056605262 0.066362811180002854 0.0061973529188790386 0.039732037561227417 0.030769832047085357 -0.074566531091238106 -0.043364746534044964 0.02419125286862334 0.041983654265452745 0.020309938833115923 0.0064721796126493043 -0.083788464434231852 0.050708952717177326 -0.023990146410471688 0.012233890668457766
leaf_weight=36.322390414774418 9.1199149005115014 225.08953751623631 34.077145874500275 5.8595142848789683 11.575797416269777 123.81504626758397 33.129047356545925 19.684022288769484 66.675609202124178 5.5883510373532763 4.5142789781093589 7.5810114257037737 25.909695908427238 18.771545983850963 5.2740186592563969 3.7409046590328208 13.468804452568291 3.9364082813262931 11.056705158203842 8.5328482631593925 5.6558818854391566 108.65491512138397 3.0432508178055286 5.6203420571982852 15.571522157639263 4.7191691249609011 6.0129544520750633 41.914271652698517 20.403110631741583 3.3666367642581454 8.2254893630743009 9.0399807505309564 6.6636573392897835 4.1141616962850049 13.955895760096615 2.9078583568334579 3.8725192919373503 3.330287840217351 4.9503818899393108 4.5751011017709979 7.4042456150054923 36.689566151238978 4.7132546897046259 4.3587891794741163 2.4976312220096588 4.4591090418398371 3.8186464682221404 10.138536379672589 8.6621899455785734 17.773763523437086 8.3666393347084504 10.15214619413018 4.120120037347081 21.103311344981194 22.152953431010246 13.190570589154957 8.4755536429584044 5.3696892140433174 5.3246050402522087 8.2933892384171468 6.6776685938239098 15.076227232813833
leaf_count=61 99 358 369 27 34 436 367 58 859 19 14 35 55 209 43 10 163 35 33 82 22 1252 31 32 40 13 61 570 76 32 28 100 25 43 136 15 16 14 11 50 99 131 58 11 8 44 7 49 15 66 20 33 49 177 99 36 27 24 42 21 44 81
internal_value=-3.60085e-10 0.0445069 -0.0026146 -0.0148829 -0.0379614 -0.00900105 -0.0138604 -0.0105618 -0.0224869 -0.0482217 -0.0541625 -0.0140663 0.00162513 -0.0226796 -0.0349922 -0.0510111 0.0103918 -0.00537017 -0.000666363 0.016755 -0.0117103 -0.0581436 -0.00539649 -0.0555783 0.0192945 -0.000738512 -0.003506 -0.0564421 0.00392739 -0.0107109 -0.00133859 -0.0184729 -0.0122141 -0.00557465 -0.0146561 -0.0544206 -0.0363794 -0.045199 0.0184895 0.00572404 0.00360706 0.00643294 -0.0233691 -0.00124441 -0.0362208 0.008991 0.0018904 0.00586686 0.0166335 0.0318332 0.00330473 -0.000464536 -0.00494928 -0.0144894 0.00870414 0.0144246 0.00718341 -0.0124805 -0.0384679 0.0203589 0.00114081 -0.00559368
internal_weight=1179.14 295.489 70.3995 883.65 179.471 704.179 580.364 547.235 315.911 77.8843 122.072 238.027 84.3536 153.673 105.057 71.6295 75.2337 49.324 33.4273 25.2454 14.1887 116.212 7.55753 72.296 35.8552 20.2836 57.3987 67.8886 48.6162 28.2131 24.8465 16.621 45.8229 39.8099 33.1463 8.18188 25.9744 22.1018 16.3472 231.324 211.64 204.236 16.1448 11.4315 7.07273 188.091 97.502 93.0429 90.5888 34.7293 89.2243 80.8576 70.7055 47.3764 26.2731 23.3291 55.8594 19.1698 10.6943 26.0672 11.3968 29.0321
internal_count=7074 788 430 6286 1704 4582 4146 3779 2655 910 1324 1745 460 1285 1014 819 361 306 195 137 104 1297 45 891 143 103 380 809 271 195 163 135 346 285 260 58 239 223 68 1124 1066 967 127 69 58 840 514 470 326 102 463 443 410 325 148 85 224 93 66 87 57 217
is_linear=0
shrinkage=0.05


Tree=9
num_leaves=63
num_cat=0
split_feature=1 0 0 1 1 1 2 2 1 2 0 0 2 1 0 2 2 2 1 0 2 2 2 2 2 1 0 2 2 2 0 0 0 0 0 0 0 2 1 2 2 1 1 0 0 0 1 1 1 1 0 1 2 1 0 0 2 0 1 2 0 1
split_gain=275.428 70.0858 98.9524 35.6322 36.1492 34.148 27.1395 49.7152 55.2947 28.7052 21.249 20.2436 17.1171 16.644 13.5393 20.287 15.8952 13.7399 11.611 11.5294 10.8033 11.0062 10.6347 9.10625 10.8786 8.92499 7.73201 11.5479 11.0756 11.925 7.52774 6.44032 6.26588 10.3983 6.85561 8.06983 14.3273 12.7459 7.88243 11.9372 7.23393 5.80433 8.794 5.73319 5.48023 5.41852 5.57321 5.371 6.49724 5.28287 5.25723 5.32723 4.97326 4.55312 4.2422 4.24061 7.52641 4.23327 4.21941 4.01776 9.60464 6.74914
threshold=-0.23243613138686187 -0.030557304089460596 -0.033112380844172139 -0.18081660583941617 -0.11272810218978079 -0.11243156934306549 8.7913834567913634e-05 -4.0098649573833973e-05 0.19101277372262773 2.2279180282693476e-05 -0.0098148609334386978 -0.020777595634066299 -2.6065314793447845e-05 0.20536040145985404 0.24552590888456829 -0.00015073433566324996 -0.00076655496549979992 -0.00014316088962129997 0.075068430656934207 0.22812840651177083 3.1891946693367297e-05 5.572122908155113e-05 0.00015462180424525004 7.2522604937518679e-05 7.6025346319298466e-05 -0.020962591240876096 0.26048499876200998 -0.00017550669905824998 -0.00081986833786589994 -0.00090367170399519991 0.15214823690834886 0.13915245739280732 -0.20894772108282381 -0.13463761193414742 -0.13059591363016657 -0.007835239136710399 -0.028223269921188097 0.00015878431299600005 -0.037591240875912237 0.00011625770185315 0.00011403298678415001 0.12214872262773711 0.15506386861313892 -0.061975523046956242 -0.078059349853495094 0.091970439070696963 0.22819343065693443 0.0089644160583941014 0.052509124087591209 0.18049726277372247 -0.078059349853495094 0.0069571167883213008 -0.00072905636983984989 0.35978558394160559 -0.020777595634066299 -0.10954063879833593 0.00010176061377010001 -0.0040970690793552993 0.12611770072992698 -0.00012558480887644999 0.047684313745732308 0.16327554744525563
decision_type=10 2 2 10 10 10 2 2 10 2 2 2 2 10 2 2 2 2 10 2 2 2 2 2 2 10 2 2 2 2 2 2 2 2 2 2 2 2 10 2 2 10 8 2 2 2 10 10 10 8 2 10 2 8 2 2 2 2 10 2 2 10
left_child=1 2 44 22 54 -6 7 13 9 12 18 -10 -9 14 16 -16 58 49 -11 30 -12 -22 -2 -23 -25 -19 -15 28 29 53 32 -26 -8 -34 -35 36 37 38 43 40 -40 50 -43 -36 -1 46 -13 -27 -49 52 51 -14 -18 -28 55 56 -5 -37 -7 -50 -61 -62
right_child=3 -3 -4 4 5 6 19 8 11 10 20 45 41 26 15 -17 17 25 -20 -21 21 23 -24 24 31 47 27 -29 -30 -31 -32 -33 33 34 35 57 -38 -39 39 -41 -42 42 -44 -45 -46 -47 -48 48 59 -51 -52 -53 -54 -55 -56 -57 -58 -59 -60 60 61 -63
leaf_value=0.022034720577100115 -0.068075958719574031 0.057278954484234715 -0.066406329835903652 0.046111467923903866 -0.06668272836557014 0.010910848164483206 0.059256660870844559 -0.056653871950172886 0.079783746015548287 -0.053188305420141781 -0.076462892495173851 0.0026436253359077241 -0.072767094457794168 0.031639966906351659 -0.070454699564755002 0.037552972142137653 0.01095392107419027 -0.078282951975298165 0.0093351458122940996 -0.072194763592158082 0.01615597666418242 -0.072885498890017317 0.050807194789653148 0.036637032123461546 -0.075125603504440738 0.039484588792278813 0.03482948756682544 -0.084056758441850399 0.043333429563200854 -0.067998484031872627 0.047571975250833037 0.019974451686823925 -0.074624569860919934 0.074789873504932089 -0.00012543467193640146 0.042804255113988228 -0.083361233077180005 -0.079570993907153845 -0.018991656779775833 -0.063807349917289743 0.05903252491010285 -0.063652567510602859 0.017712018907892486 0.063665950947669081 0.063644275086288282 -0.06430123627568296 -0.079677678686506839 -0.054207601807361942 0.039198424109916225 0.0043091369626767758 0.024917730696347038 0.029838699172946594 -0.07255893282812298 -0.02612898702789709 -0.00043581580180186399 0.048895009188959553 -0.030265358867033177 0.0079623276916064543 0.052839748987765438 0.025984852924277092 -0.060480931199772527 0.011403050451310119
leaf_weight=10.893825475126503 35.865042196586728 210.28826073929667 31.439509488642216 7.6848874464631027 30.531338728964329 11.416803397238256 5.0479361414909354 9.455369930714367 2.6120823621749869 70.787817723117769 5.2635444374755016 6.2418027371168119 2.8850780203938475 47.783214934170246 18.020785205066208 5.7299866750836363 2.0425922721624419 3.4522895310074082 8.2956960517913085 4.67711417376995 34.918119574896991 7.6509370338171747 1.9852831028401841 7.6254220232367507 5.7983784349635226 9.130615182220934 8.7406835407018644 3.5755123309791079 14.686069738119839 6.7433497011661556 10.892311688512562 2.5690394006669521 4.232715778052806 3.4250700250267974 6.1869115456938735 9.7655574008822423 6.4214123878628007 4.7183763012289992 6.2951598446816224 7.1724806036800137 5.6252055019140244 5.541809428483246 8.2865932621061784 8.1777363903820497 28.921960882842541 103.44171288376674 3.0658542085438967 5.3666424788534632 6.8545886278152421 3.7044592369347837 60.0914694564417 2.2528123743832111 14.010034873615947 4.7159965969622126 9.3773423135280591 25.645323056727651 5.5586865358054638 81.262662028893828 12.646801702678202 13.771578647196298 8.5431976066902262 5.2854815423488608
leaf_count=29 416 358 369 22 367 37 11 115 4 943 61 28 32 153 202 18 6 39 46 75 161 103 4 28 75 26 30 27 44 75 28 13 49 5 28 23 53 45 50 55 9 47 38 17 52 1405 31 49 23 27 233 10 197 23 36 58 31 352 28 49 84 22
internal_value=-3.36583e-11 0.0427574 -9.85583e-05 -0.0144419 -0.0121872 -0.0148954 -0.0126899 -0.0179861 -0.0295469 -0.0154504 -0.0293091 -0.0578253 0.00692512 0.00145465 -0.0105888 -0.0443973 -0.00224404 -0.0139791 -0.0466297 0.00517969 -0.00784782 -0.0016807 -0.0618404 -0.0280226 -0.00656035 -0.000582739 0.0182084 0.00152161 0.0102926 -0.0137291 0.00745253 -0.0459271 0.00450646 0.00257759 0.00492763 0.00316334 -0.0142614 -0.00263834 0.00821116 -0.0128395 0.0178279 0.0145292 -0.0148953 0.0361907 0.0522597 -0.0610133 -0.0244722 0.00489698 -0.00303357 -0.0495121 0.0207671 -0.0277775 -0.0619325 0.0134661 0.029751 0.03703 0.014054 0.0117002 0.0329469 0.00493723 -0.00357161 -0.033006
internal_weight=1115.1 281.544 71.2553 833.553 795.702 747.436 716.905 553.004 346.784 231.422 142.909 115.361 88.5131 206.221 119.976 23.7508 96.2251 72.1615 79.0835 163.901 63.8254 58.5619 37.8503 23.6438 15.9928 52.4044 86.2448 38.4616 34.8861 20.2 159.224 8.36742 148.331 143.283 139.051 135.626 44.5973 38.1759 33.4575 19.0928 11.9204 79.0578 13.8284 14.3646 39.8158 112.749 9.30766 48.9521 39.8215 19.7571 65.2294 5.13789 16.0526 13.4567 48.2662 38.8889 13.2436 91.0282 24.0636 34.4548 27.6003 13.8287
internal_count=7074 808 450 6266 5846 5699 5332 4532 3373 1905 1430 1468 475 1159 807 220 587 522 989 800 441 380 420 219 116 292 352 199 172 128 725 88 697 686 637 632 257 204 159 114 59 360 85 45 81 1464 59 253 227 230 275 42 203 53 147 111 53 375 65 178 155 106
is_linear=0
shrinkage=0.05


Tree=10
num_leaves=63
num_cat=0
split_feature=1 0 0 6 1 0 1 1 6 6 1 1 1 2 2 6 1 2 6 0 2 6 2 2 1 2 1 6 6 6 6 6 0 1 6 1 1 2 2 2 0 1 6 2 1 2 0 2 1 0 1 1 6 6 1 1 1 0 2 1 6 2
split_gain=238.971 61.3215 86.2134 36.8673 38.7755 30.8227 20.2603 38.406 23.8722 21.3617 18.0971 10.2776 23.5786 10.7211 15.6095 9.8001 8.43632 10.5897 15.3898 11.3847 9.22273 8.73789 7.61719 14.5954 9.18722 6.94891 6.6066 7.38008 5.90705 5.32409 5.4799 10.8836 5.12355 5.02277 4.87088 4.73329 11.6248 4.65501 14.2946 5.99383 7.12304 10.7873 4.5849 4.91373 4.05008 3.82166 12.8943 5.09963 3.71597 4.3123 9.2535 6.92987 4.26569 5.55771 7.49633 6.95085 6.45281 4.73933 3.70468 10.7332 9.92238 6.13891
threshold=-0.23243613138686187 -0.030557304089460596 -0.033112380844172139 0.84274900859198143 -0.22570711678832103 0.10333754178187156 -0.11272810218978079 -0.11243156934306549 0.53328950799111607 0.52214683843712273 0.15050182481751781 -0.060675182481751695 -0.073289233576642132 -0.00241851819515345 -0.0013483350269747499 0.93107941291852092 0.25104927007299255 -4.6458395249130112e-05 0.4719095073701865 -0.032001682622865443 0.00014421558969535003 0.013361935657939701 -0.00015073433566324996 -0.0006851390270102498 0.24404653284671537 0.00011073300810090001 0.10120894160583972 0.94994184908930623 0.95849322019786254 0.22466184418761212 0.56814212657878616 0.72687566034094742 -0.073611394585906639 -0.043134124087591243 0.33340768245421415 0.11631995757902522 0.15821167883211637 0.00012375048528960004 0.00011403298678415001 0.00013870761690530002 0.017766231997808402 0.060834854014598608 0.49089482510154625 7.6305715394837715e-06 0.12383667883211676 -0.00072905636983984989 0.32434775306399383 -0.00023269036751364999 -0.056751824817518191 0.016759392151202552 0.058234489051094608 0.073631386861314069 0.73146933433827976 0.71949796925667142 0.052509124087591209 -0.023905109489051394 0.055542883211678606 0.059849030248003011 -6.705071516870799e-05 0.18902828467153318 0.46136703918789351 -8.5286911639478367e-05
decision_type=10 2 2 2 10 2 10 10 2 2 10 10 10 2 2 2 8 2 2 2 2 2 2 2 10 2 10 2 2 2 2 2 2 8 2 10 10 2 2 2 2 8 2 2 10 2 2 2 10 2 8 8 2 2 10 10 10 2 2 8 2 2
left_child=1 2 34 4 -2 10 29 -8 9 11 15 12 25 -13 -15 -5 20 18 -18 -19 21 -16 23 -23 -25 32 27 -7 -29 -6 -31 -32 -9 -22 -1 -28 -37 38 45 -39 -41 -42 58 -44 -45 -10 47 -47 -49 50 -50 -52 53 54 55 -51 -56 -54 61 60 -60 -24
right_child=3 -3 -4 5 6 26 7 8 37 -11 -12 13 -14 14 16 -17 17 19 -20 -21 33 22 42 24 -26 -27 35 28 -30 30 31 -33 -34 -35 -36 36 -38 39 -40 40 41 -43 43 44 -46 46 -48 48 49 52 51 -53 57 -55 56 -57 -58 -59 59 -61 -62 -63
leaf_value=0.015637526728626672 -0.065115877326049121 0.055328984289564523 -0.064968199185183456 0.0066897849252372868 -0.022508091509812242 -0.072850823540579576 -0.065219563173279413 -0.076783235578754341 0.02544438655908542 -0.0665269504013042 -0.061896527744639142 -0.066720776030191317 -0.066655131167485268 0.049466013419360036 -0.065985099104934955 -0.067214759864272722 0.023274476084983294 0.075568017390130415 -0.067540158189878616 -0.066613402454257412 0.0093389744502533432 0.02195718812469916 -0.0013488897120460634 -0.06779991110315238 0.054920524541742781 0.036583725231270327 0.046789346132347781 0.037270174623347183 -0.04481532207762412 0.04264948847118033 -0.046302756713565436 0.052020724148005459 0.010941762458949483 -0.077427688993789573 0.059651157278854408 -0.072401909922436822 0.011854155569056911 0.041161871548455777 -0.084514758147075361 -0.044706291828493366 0.047065990882289251 -0.024210906555379129 0.07113974692690482 -0.026083658004584915 0.0526985422119291 -0.051665239972310519 -0.069685030883746071 0.029830771788280971 -0.054414261398966338 0.021955252418503969 0.047767466481155541 -0.015698328232843752 -0.04597926320053855 0.047324197517078587 0.06617834874547518 -0.054628857813641289 0.011536918129215859 0.0022487967570522182 0.0078165892247854408 -0.081135530894426933 -0.076332727570076531 0.057044715675066797
leaf_weight=8.0204060077667219 28.685199987143278 196.42309478670359 28.981409102678299 17.538776620291177 5.0728813819587222 6.4196163285523644 28.119338802993298 3.0523891039192685 19.797928974032402 19.078000541776419 82.450468581169844 7.3152384683489791 23.862796969711781 12.310284189879892 4.8660559058189383 6.0271787717938414 15.11824829503894 1.5278416872024561 6.7470995895564547 17.936568766832352 2.2879073172807693 10.908933393657209 10.094509147107603 13.443955704569813 1.7202119566500194 10.180262468755243 6.2181330276653162 4.5452840607613307 4.2325894013047218 30.745634132996202 5.7431245073676092 5.5192841067910194 3.6603794563561696 6.1551467319950444 29.067917428910732 4.8240532428026226 27.042166467756033 19.587772351689637 4.6044091358780852 5.7150630736723569 12.997089904732997 8.9730518809519761 5.6161477286368591 3.8099513505585492 2.8529134169220924 3.9107891228049985 6.0130972750484935 15.019610202871261 9.3962918277829868 4.8462758734822273 6.5727189183235186 12.44534029858187 5.6772219836711875 11.68822682648897 6.2186814695596686 7.6233602026477438 41.198824715800583 49.584534720517695 73.771237443666905 3.9051863998174658 3.6777604054659596 8.1226067282259447
leaf_count=23 368 358 369 106 30 95 367 35 63 404 1137 93 391 28 79 79 54 2 81 248 9 31 53 182 5 29 22 18 43 84 30 13 20 65 58 68 134 52 34 28 32 39 10 36 8 52 98 60 89 20 19 78 45 35 11 61 185 268 445 33 43 19
internal_value=2.48455e-11 0.041313 -0.000355923 -0.0137781 -0.00832695 -0.0352603 -0.00560783 -0.00829314 -0.00523768 -0.015508 -0.0508523 -0.0116599 -0.0346568 -0.00724279 -0.00511905 -0.0122119 -0.00860861 -0.0286281 -0.00474865 -0.055453 -0.00313758 -0.000135104 0.00218814 -0.0221491 -0.0538786 0.0105434 -0.00423638 -0.0321076 -0.00231051 0.0258767 0.0317196 0.00188189 -0.028948 -0.0539156 0.0501331 0.0068856 -0.000900911 0.0058543 0.00258693 0.0199955 0.00501986 0.0179551 0.00786131 0.0366885 0.0076494 0.00459226 0.00230125 0.00478635 0.00608293 0.00378548 -0.0138205 0.00623571 0.00772962 0.0157866 0.00963137 -0.0248647 0.018703 -0.00270583 0.00430638 -0.000257435 0.00382066 0.0246875
internal_weight=1049.57 262.493 66.0697 787.076 627.777 159.298 599.092 552.011 523.892 272.022 106.016 252.944 40.7558 212.188 204.873 23.566 192.562 41.3298 21.8653 19.4644 151.233 142.789 137.923 26.0731 15.1642 16.893 53.2818 15.1975 8.77787 47.0809 42.008 11.2624 6.71277 8.44305 37.0883 38.0844 31.8662 251.87 204.597 47.273 27.6852 21.9701 111.85 12.279 6.66286 199.993 180.195 174.182 170.271 155.251 28.4144 19.0181 126.837 71.5754 59.8871 12.4696 47.4175 55.2618 99.5713 81.3542 77.449 18.2171
internal_count=7074 808 450 6266 4564 1702 4196 4039 3672 2403 1322 1999 475 1524 1431 185 1403 385 135 250 1018 944 865 218 187 84 380 156 61 157 127 43 55 74 81 224 202 1269 1118 151 99 71 647 54 44 1084 1021 923 871 811 186 97 625 312 277 81 196 313 593 521 488 72
is_linear=0
shrinkage=0.05


end of trees

feature_importances:
ppr_diff=228
dist_diff=183
pen_diff=134
pos_in_bucket_pen=133
bucket_dist=3
bucket_pen=1

parameters:
[boosting: gbdt]
[objective: lambdarank]
[metric: ndcg]
[tree_learner: serial]
[device_type: cpu]
[data_sample_strategy: bagging]
[data: ]
[valid: ]
[num_iterations: 2000]
[learning_rate: 0.05]
[num_leaves: 63]
[num_threads: 8]
[seed: 42]
[deterministic: 0]
[force_col_wise: 0]
[force_row_wise: 0]
[histogram_pool_size: -1]
[max_depth: -1]
[min_data_in_leaf: 20]
[min_sum_hessian_in_leaf: 0.001]
[bagging_fraction: 0.9]
[pos_bagging_fraction: 1]
[neg_bagging_fraction: 1]
[bagging_freq: 0]
[bagging_seed: 400]
[bagging_by_query: 0]
[feature_fraction: 0.9]
[feature_fraction_bynode: 1]
[feature_fraction_seed: 30056]
[extra_trees: 0]
[extra_seed: 12879]
[early_stopping_round: 0]
[early_stopping_min_delta: 0]
[first_metric_only: 0]
[max_delta_step: 0]
[lambda_l1: 0]
[lambda_l2: 0]
[linear_lambda: 0]
[min_gain_to_split: 0]
[drop_rate: 0.1]
[max_drop: 50]
[skip_drop: 0.5]
[xgboost_dart_mode: 0]
[uniform_drop: 0]
[drop_seed: 17869]
[top_rate: 0.2]
[other_rate: 0.1]
[min_data_per_group: 100]
[max_cat_threshold: 32]
[cat_l2: 10]
[cat_smooth: 10]
[max_cat_to_onehot: 4]
[top_k: 20]
[monotone_constraints: ]
[monotone_constraints_method: basic]
[monotone_penalty: 0]
[feature_contri: ]
[forcedsplits_filename: ]
[refit_decay_rate: 0.9]
[cegb_tradeoff: 1]
[cegb_penalty_split: 0]
[cegb_penalty_feature_lazy: ]
[cegb_penalty_feature_coupled: ]
[path_smooth: 0]
[interaction_constraints: ]
[verbosity: 1]
[saved_feature_importance_type: 0]
[use_quantized_grad: 0]
[num_grad_quant_bins: 4]
[quant_train_renew_leaf: 0]
[stochastic_rounding: 1]
[linear_tree: 0]
[max_bin: 255]
[max_bin_by_feature: ]
[min_data_in_bin: 3]
[bin_construct_sample_cnt: 200000]
[data_random_seed: 175]
[is_enable_sparse: 1]
[enable_bundle: 1]
[use_missing: 1]
[zero_as_missing: 0]
[feature_pre_filter: 1]
[pre_partition: 0]
[two_round: 0]
[header: 0]
[label_column: ]
[weight_column: ]
[group_column: ]
[ignore_column: ]
[categorical_feature: ]
[forcedbins_filename: ]
[precise_float_parser: 0]
[parser_config_file: ]
[objective_seed: 16083]
[num_class: 1]
[is_unbalance: 0]
[scale_pos_weight: 1]
[sigmoid: 1]
[boost_from_average: 1]
[reg_sqrt: 0]
[alpha: 0.9]
[fair_c: 1]
[poisson_max_delta_step: 0.7]
[tweedie_variance_power: 1.5]
[lambdarank_truncation_level: 30]
[lambdarank_norm: 1]
[label_gain: ]
[lambdarank_position_bias_regularization: 0]
[eval_at: 1,3,5,10]
[multi_error_top_k: 1]
[auc_mu_weights: ]
[num_machines: 1]
[local_listen_port: 12400]
[time_out: 120]
[machine_list_filename: ]
[machines: ]
[gpu_platform_id: -1]
[gpu_device_id: -1]
[gpu_use_dp: 0]
[num_gpu: 1]

end of parameters

pandas_categorical:[]
